{"learner":{"attributes":{"scikit_learn":"{\"_estimator_type\": \"classifier\"}"},"feature_names":[],"feature_types":[],"gradient_booster":{"model":{"gbtree_model_param":{"num_parallel_tree":"1","num_trees":"400"},"iteration_indptr":[0,1,2,3,4,5,6,7,8,9,10,11,12,13,14,15,16,17,18,19,20,21,22,23,24,25,26,27,28,29,30,31,32,33,34,35,36,37,38,39,40,41,42,43,44,45,46,47,48,49,50,51,52,53,54,55,56,57,58,59,60,61,62,63,64,65,66,67,68,69,70,71,72,73,74,75,76,77,78,79,80,81,82,83,84,85,86,87,88,89,90,91,92,93,94,95,96,97,98,99,100,101,102,103,104,105,106,107,108,109,110,111,112,113,114,115,116,117,118,119,120,121,122,123,124,125,126,127,128,129,130,131,132,133,134,135,136,137,138,139,140,141,142,143,144,145,146,147,148,149,150,151,152,153,154,155,156,157,158,159,160,161,162,163,164,165,166,167,168,169,170,171,172,173,174,175,176,177,178,179,180,181,182,183,184,185,186,187,188,189,190,191,192,193,194,195,196,197,198,199,200,201,202,203,204,205,206,207,208,209,210,211,212,213,214,215,216,217,218,219,220,221,222,223,224,225,226,227,228,229,230,231,232,233,234,235,236,237,238,239,240,241,242,243,244,245,246,247,248,249,250,251,252,253,254,255,256,257,258,259,260,261,262,263,264,265,266,267,268,269,270,271,272,273,274,275,276,277,278,279,280,281,282,283,284,285,286,287,288,289,290,291,292,293,294,295,296,297,298,299,300,301,302,303,304,305,306,307,308,309,310,311,312,313,314,315,316,317,318,319,320,321,322,323,324,325,326,327,328,329,330,331,332,333,334,335,336,337,338,339,340,341,342,343,344,345,346,347,348,349,350,351,352,353,354,355,356,357,358,359,360,361,362,363,364,365,366,367,368,369,370,371,372,373,374,375,376,377,378,379,380,381,382,383,384,385,386,387,388,389,390,391,392,393,394,395,396,397,398,399,400],"tree_info":[0,0,0,0,0,0,0,0,0,0,0,0,0,0,0,0,0,0,0,0,0,0,0,0,0,0,0,0,0,0,0,0,0,0,0,0,0,0,0,0,0,0,0,0,0,0,0,0,0,0,0,0,0,0,0,0,0,0,0,0,0,0,0,0,0,0,0,0,0,0,0,0,0,0,0,0,0,0,0,0,0,0,0,0,0,0,0,0,0,0,0,0,0,0,0,0,0,0,0,0,0,0,0,0,0,0,0,0,0,0,0,0,0,0,0,0,0,0,0,0,0,0,0,0,0,0,0,0,0,0,0,0,0,0,0,0,0,0,0,0,0,0,0,0,0,0,0,0,0,0,0,0,0,0,0,0,0,0,0,0,0,0,0,0,0,0,0,0,0,0,0,0,0,0,0,0,0,0,0,0,0,0,0,0,0,0,0,0,0,0,0,0,0,0,0,0,0,0,0,0,0,0,0,0,0,0,0,0,0,0,0,0,0,0,0,0,0,0,0,0,0,0,0,0,0,0,0,0,0,0,0,0,0,0,0,0,0,0,0,0,0,0,0,0,0,0,0,0,0,0,0,0,0,0,0,0,0,0,0,0,0,0,0,0,0,0,0,0,0,0,0,0,0,0,0,0,0,0,0,0,0,0,0,0,0,0,0,0,0,0,0,0,0,0,0,0,0,0,0,0,0,0,0,0,0,0,0,0,0,0,0,0,0,0,0,0,0,0,0,0,0,0,0,0,0,0,0,0,0,0,0,0,0,0,0,0,0,0,0,0,0,0,0,0,0,0,0,0,0,0,0,0,0,0,0,0,0,0,0,0,0,0,0,0,0,0,0,0,0,0,0,0,0,0,0,0,0,0,0,0,0,0,0,0,0,0,0,0,0,0,0,0,0,0,0,0,0,0,0,0],"trees":[{"base_weights":[9.375069E-8,9.8816603E-1,-1.0526346E0,-2.9685292E-2,1.2646152E0,-1.5011389E0,3.0455473E-1,8.363258E-1,-7.0534295E-1,1.5475395E0,7.378055E-1,-1.7125658E0,-4.2248E-1,9.3225724E-1,-5.460732E-1,1.2436107E0,-6.743264E-2,5.239237E-1,-1.0428667E0,1.1689402E0,1.7294451E0,-6.9189236E-2,1.0738419E0,-1.7776905E0,-5.576786E-1,-8.806257E-1,6.2454164E-1,-3.0034158E-1,1.2195786E0,-1.062827E0,2.7226907E-1,-1.4556016E-1,1.422737E0,-5.76749E-1,1.1262702E0,9.915028E-1,-5.3246117E-1,1.9778846E-1,-1.2784553E0,6.409383E-1,1.5229168E0,1.8050106E0,1.3527578E0,-6.616354E-1,6.373857E-1,1.3972913E0,4.7016272E-1,-9.584556E-1,-1.8211242E0,9.6615255E-1,-1.0391904E0,-2.1281074E-1,-1.3258984E0,1.189888E0,-2.0528762E-1,-8.224269E-1,7.08877E-1,2.877153E-1,1.4398532E0,-8.796087E-2,-1.4199486E0,8.110255E-1,-6.2856996E-1,-2.1966766E-1,1.7520589E-1,6.6590875E-2,3.124252E-1,-2.1902716E-1,7.752251E-2,-2.1598347E-1,2.7086794E-1,2.3870148E-2,2.827035E-1,-2.8004527E-1,6.2354814E-2,-1.0797646E-1,2.2139762E-1,-1.3337041E-2,-2.8898582E-1,-9.744382E-3,2.4595301E-1,3.2096013E-1,1.0402441E-1,3.7158623E-1,2.7384442E-1,1.4428471E-1,3.2167652E-1,4.9404867E-2,-2.2685055E-1,-1.5692009E-1,1.8422009E-1,1.6203666E-1,3.184846E-1,2.1994625E-1,7.1142585E-4,1.8969528E-1,-2.3749132E-1,-3.703867E-1,-2.1244664E-1,2.848927E-1,-2.1022402E-1,-2.6070657E-1,1.3254671E-1,1.373394E-1,-1.5564072E-1,1.01542406E-1,-2.9027924E-1,-2.1242617E-1,2.637659E-1,-1.6146742E-1,1.9312863E-1,-2.7306345E-1,3.9179392E-2,2.133133E-1,-2.406921E-1,2.0403607E-1,-1.5522033E-1,3.07152E-1,1.9179303E-2,1.6387652E-1,-1.751942E-1,-3.0596858E-1,1.4118356E-1,3.9427847E-2,2.666133E-1,-2.7316886E-1,1.9373035E-2],"categories":[],"categories_nodes":[],"categories_segments":[],"categories_sizes":[],"default_left":[0,0,0,0,0,0,0,0,0,0,0,0,0,0,0,0,0,0,0,0,0,0,0,0,0,0,0,0,0,0,0,0,0,0,0,0,0,0,0,0,0,0,0,0,0,0,0,0,0,0,0,0,0,0,0,0,0,0,0,0,0,0,0,0,0,0,0,0,0,0,0,0,0,0,0,0,0,0,0,0,0,0,0,0,0,0,0,0,0,0,0,0,0,0,0,0,0,0,0,0,0,0,0,0,0,0,0,0,0,0,0,0,0,0,0,0,0,0,0,0,0,0,0,0,0,0,0],"id":0,"left_children":[1,3,5,7,9,11,13,15,17,19,21,23,25,27,29,31,33,35,37,39,41,43,45,47,49,51,53,55,57,59,61,63,65,67,69,71,73,75,77,79,81,83,85,87,89,91,93,95,97,99,101,103,105,107,109,111,113,115,117,119,121,123,125,-1,-1,-1,-1,-1,-1,-1,-1,-1,-1,-1,-1,-1,-1,-1,-1,-1,-1,-1,-1,-1,-1,-1,-1,-1,-1,-1,-1,-1,-1,-1,-1,-1,-1,-1,-1,-1,-1,-1,-1,-1,-1,-1,-1,-1,-1,-1,-1,-1,-1,-1,-1,-1,-1,-1,-1,-1,-1,-1,-1,-1,-1,-1,-1],"loss_changes":[6.503161E3,9.0742676E2,1.8431514E3,4.041794E2,3.7684058E2,5.1821875E2,4.0243152E2,1.1152171E2,1.6152946E2,1.1154321E2,2.4088065E2,1.4208008E2,1.8007259E2,1.5389041E2,1.3571654E2,5.215161E1,5.840668E1,4.2142487E1,8.932602E1,9.962256E1,2.920337E1,1.10096405E2,1.2177026E2,6.2311035E1,7.657917E1,7.725398E1,5.3960667E1,4.4183628E1,7.178766E1,6.8285385E1,6.1054775E1,2.5052435E1,2.758191E1,3.4043434E1,1.5928482E1,2.1454773E1,1.9850311E1,3.379665E1,5.159613E1,8.848569E1,2.5564453E1,1.8742676E1,2.946228E1,6.169102E1,4.9135082E1,4.542285E1,6.4696465E1,4.162903E1,3.7978027E1,2.4841768E1,3.6292633E1,5.418884E1,3.6692017E1,2.1219025E1,3.4088726E1,3.0673416E1,2.094914E1,5.4167316E1,3.6490845E1,3.914861E1,3.466275E1,2.4894272E1,2.5403599E1,0E0,0E0,0E0,0E0,0E0,0E0,0E0,0E0,0E0,0E0,0E0,0E0,0E0,0E0,0E0,0E0,0E0,0E0,0E0,0E0,0E0,0E0,0E0,0E0,0E0,0E0,0E0,0E0,0E0,0E0,0E0,0E0,0E0,0E0,0E0,0E0,0E0,0E0,0E0,0E0,0E0,0E0,0E0,0E0,0E0,0E0,0E0,0E0,0E0,0E0,0E0,0E0,0E0,0E0,0E0,0E0,0E0,0E0,0E0,0E0,0E0,0E0,0E0,0E0],"parents":[2147483647,0,0,1,1,2,2,3,3,4,4,5,5,6,6,7,7,8,8,9,9,10,10,11,11,12,12,13,13,14,14,15,15,16,16,17,17,18,18,19,19,20,20,21,21,22,22,23,23,24,24,25,25,26,26,27,27,28,28,29,29,30,30,31,31,32,32,33,33,34,34,35,35,36,36,37,37,38,38,39,39,40,40,41,41,42,42,43,43,44,44,45,45,46,46,47,47,48,48,49,49,50,50,51,51,52,52,53,53,54,54,55,55,56,56,57,57,58,58,59,59,60,60,61,61,62,62],"right_children":[2,4,6,8,10,12,14,16,18,20,22,24,26,28,30,32,34,36,38,40,42,44,46,48,50,52,54,56,58,60,62,64,66,68,70,72,74,76,78,80,82,84,86,88,90,92,94,96,98,100,102,104,106,108,110,112,114,116,118,120,122,124,126,-1,-1,-1,-1,-1,-1,-1,-1,-1,-1,-1,-1,-1,-1,-1,-1,-1,-1,-1,-1,-1,-1,-1,-1,-1,-1,-1,-1,-1,-1,-1,-1,-1,-1,-1,-1,-1,-1,-1,-1,-1,-1,-1,-1,-1,-1,-1,-1,-1,-1,-1,-1,-1,-1,-1,-1,-1,-1,-1,-1,-1,-1,-1,-1],"split_conditions":[2.0661829E-2,-3.7413496E-1,2.248428E-1,-2.2729759E-1,6.388841E-2,3.7267005E-1,6.327051E-2,2.8622887E-1,-9.2582345E-1,1.0133854E-1,-1.98557E-1,9.555219E-1,4.344855E-1,-6.4415824E-1,1.11303285E-1,-8.565695E-1,4.4742388E-1,3.4018534E-1,-9.7949874E-1,1.4989693E-1,5.782179E-1,5.072278E-1,1.2636554E-1,-1.0044577E0,-6.718847E-1,5.3374562E-2,6.142287E-2,2.2427E-1,-3.7413496E-1,-6.0297126E-1,2.0189095E-1,1.1098317E-1,-8.271486E-1,1.0288653E-1,-1.547328E0,-5.47673E-1,-1.3314535E-1,5.68709E-2,-8.888397E-1,3.283637E-1,1.1821138E0,4.9659732E-1,-2.5860825E-1,-4.5976132E-1,-5.669432E-1,-4.685371E-1,-2.6031226E-1,-8.043351E-1,1.0269581E0,3.8385963E-1,8.0521077E-1,-4.55947E-1,-1.0980402E0,-1.4950432E0,4.219061E-1,2.6336595E-1,6.6406363E-1,2.3321626E-1,1.2701889E0,2.8354663E-1,1.163474E0,2.2427E-1,-2.923222E-1,-2.1966766E-1,1.7520589E-1,6.6590875E-2,3.124252E-1,-2.1902716E-1,7.752251E-2,-2.1598347E-1,2.7086794E-1,2.3870148E-2,2.827035E-1,-2.8004527E-1,6.2354814E-2,-1.0797646E-1,2.2139762E-1,-1.3337041E-2,-2.8898582E-1,-9.744382E-3,2.4595301E-1,3.2096013E-1,1.0402441E-1,3.7158623E-1,2.7384442E-1,1.4428471E-1,3.2167652E-1,4.9404867E-2,-2.2685055E-1,-1.5692009E-1,1.8422009E-1,1.6203666E-1,3.184846E-1,2.1994625E-1,7.1142585E-4,1.8969528E-1,-2.3749132E-1,-3.703867E-1,-2.1244664E-1,2.848927E-1,-2.1022402E-1,-2.6070657E-1,1.3254671E-1,1.373394E-1,-1.5564072E-1,1.01542406E-1,-2.9027924E-1,-2.1242617E-1,2.637659E-1,-1.6146742E-1,1.9312863E-1,-2.7306345E-1,3.9179392E-2,2.133133E-1,-2.406921E-1,2.0403607E-1,-1.5522033E-1,3.07152E-1,1.9179303E-2,1.6387652E-1,-1.751942E-1,-3.0596858E-1,1.4118356E-1,3.9427847E-2,2.666133E-1,-2.7316886E-1,1.9373035E-2],"split_indices":[1257,777,381,556,556,777,126,117,1257,381,381,222,222,7,777,7,545,166,16,7,1388,777,181,137,137,126,1349,254,777,172,1371,4,174,1391,1110,486,194,571,1205,672,1204,181,1185,703,321,1422,923,1376,1503,446,1503,875,208,488,10,1342,127,79,181,181,488,254,790,0,0,0,0,0,0,0,0,0,0,0,0,0,0,0,0,0,0,0,0,0,0,0,0,0,0,0,0,0,0,0,0,0,0,0,0,0,0,0,0,0,0,0,0,0,0,0,0,0,0,0,0,0,0,0,0,0,0,0,0,0,0,0,0],"split_type":[0,0,0,0,0,0,0,0,0,0,0,0,0,0,0,0,0,0,0,0,0,0,0,0,0,0,0,0,0,0,0,0,0,0,0,0,0,0,0,0,0,0,0,0,0,0,0,0,0,0,0,0,0,0,0,0,0,0,0,0,0,0,0,0,0,0,0,0,0,0,0,0,0,0,0,0,0,0,0,0,0,0,0,0,0,0,0,0,0,0,0,0,0,0,0,0,0,0,0,0,0,0,0,0,0,0,0,0,0,0,0,0,0,0,0,0,0,0,0,0,0,0,0,0,0,0,0],"sum_hessian":[6.2499707E3,3.223735E3,3.0262358E3,6.887468E2,2.5349883E3,2.2744895E3,7.517465E2,3.017486E2,3.869982E2,1.6479923E3,8.8699585E2,1.9012412E3,3.7324826E2,4.32498E2,3.192485E2,2.0774904E2,9.3999565E1,8.324961E1,3.037486E2,5.372475E2,1.1107449E3,2.6099878E2,6.259971E2,1.7992416E3,1.0199953E2,2.5974878E2,1.1349947E2,8.174962E1,3.5074838E2,1.9549908E2,1.2374943E2,2.374989E1,1.8399915E2,6.6249695E1,2.774987E1,5.7749733E1,2.5499882E1,4.8499775E1,2.5524881E2,2.16749E2,3.204985E2,9.219957E2,1.8874911E2,1.4199934E2,1.1899944E2,4.067481E2,2.1924898E2,9.174957E1,1.7074921E3,2.4249887E1,7.774964E1,1.0449951E2,1.5524928E2,6.724969E1,4.6249786E1,5.399975E1,2.774987E1,6.749969E1,2.832487E2,5.2749756E1,1.4274934E2,7.749964E1,4.6249786E1,1.2249943E1,1.1499947E1,2.12499E1,1.6274924E2,4.29998E1,2.3249891E1,2.2499895E0,2.5499882E1,1.924991E1,3.849982E1,1.2249943E1,1.3249938E1,2.6999874E1,2.14999E1,3.0999855E1,2.2424896E2,1.00249535E2,1.1649946E2,2.9574863E2,2.4749886E1,8.192462E2,1.0274952E2,5.549974E1,1.3324937E2,4.8749775E1,9.3249565E1,1.9499908E1,9.9499535E1,1.0274952E2,3.039986E2,9.2749565E1,1.2649941E2,9.499956E0,8.224962E1,1.6394924E3,6.799969E1,1.9999907E1,4.2499804E0,6.749969E1,1.0249952E1,4.0249813E1,6.42497E1,9.749954E0,1.4549933E2,3.249985E0,6.3999702E1,3.0749857E1,1.54999275E1,3.4999836E1,1.8999912E1,2.374989E1,3.9999814E0,3.9999813E1,2.7499872E1,2.6424878E2,1.8999912E1,2.4499886E1,2.8249868E1,1.3599937E2,6.7499685E0,3.6249832E1,4.124981E1,2.2499895E1,2.374989E1],"tree_param":{"num_deleted":"0","num_feature":"1536","num_nodes":"127","size_leaf_vector":"1"}},{"base_weights":[1.9411944E-4,7.6251423E-1,-9.245675E-1,1.1095529E0,6.7783855E-2,-1.3169001E0,7.841885E-2,4.8122644E-1,1.2965146E0,-5.9793526E-1,6.4972925E-1,-1.4797016E0,-5.698501E-1,-6.076226E-1,6.668207E-1,-1.6782379E-1,9.283219E-1,8.112279E-1,1.4265838E0,-1.0474912E0,6.221079E-2,1.0292662E0,9.361167E-2,-9.9352413E-1,-1.5672282E0,-9.983413E-1,2.9450592E-1,-5.2871085E-3,-1.2192038E0,9.020803E-2,1.1514826E0,8.667109E-1,-5.684361E-1,1.1883082E0,2.6233047E-1,3.8446462E-1,1.2988681E0,1.1991475E0,1.5834142E0,-1.2811371E0,-7.7356674E-2,-5.221302E-1,6.1155117E-1,1.3407671E0,5.3512526E-1,-3.1669304E-1,1.0202162E0,-1.194135E0,2.0561755E-1,-1.5954605E0,-8.9773905E-1,-1.2908674E0,2.2001675E-1,9.373511E-1,-3.6682037E-1,-5.600271E-1,7.7108884E-1,-1.348794E0,1.0304076E-2,5.8960116E-1,-6.458014E-1,1.5183139E-1,1.3125618E0,8.452964E-3,2.8500295E-1,-2.4700211E-1,1.9020861E-2,2.6512852E-1,3.444697E-2,1.5626024E-1,-1.0610336E-1,-1.0449519E-1,1.4802432E-1,2.7312025E-1,-1.1047405E-1,8.693586E-2,2.6223472E-1,-5.747475E-2,3.1756005E-1,-5.622041E-2,-2.86328E-1,1.3915296E-1,-1.6374503E-1,6.277444E-2,-1.8447596E-1,-1.16482556E-1,1.8148534E-1,2.8555474E-1,7.695556E-2,-2.5407085E-2,2.2151163E-1,1.049219E-1,-1.487009E-1,-4.3627586E-2,2.610717E-1,-2.931119E-2,-2.6933205E-1,-1.4010744E-1,2.269104E-1,-3.216062E-1,-1.4119695E-1,3.5739705E-2,-2.6100487E-1,-2.7429137E-1,7.748067E-2,2.2998956E-1,-1.2412504E-1,2.7557585E-1,-4.136985E-2,-1.7463797E-1,1.5998392E-1,1.0795652E-1,-1.9929369E-1,3.4323364E-2,2.499436E-1,-2.8646314E-1,1.16448656E-1,1.9420303E-1,-1.584578E-1,1.7856754E-1,-1.0726905E-1,3.9080925E-2,-2.2146538E-1,-2.0870046E-1,1.4226697E-1,-2.7928138E-2,2.768113E-1],"categories":[],"categories_nodes":[],"categories_segments":[],"categories_sizes":[],"default_left":[0,0,0,0,0,0,0,0,0,0,0,0,0,0,0,0,0,0,0,0,0,0,0,0,0,0,0,0,0,0,0,0,0,0,0,0,0,0,0,0,0,0,0,0,0,0,0,0,0,0,0,0,0,0,0,0,0,0,0,0,0,0,0,0,0,0,0,0,0,0,0,0,0,0,0,0,0,0,0,0,0,0,0,0,0,0,0,0,0,0,0,0,0,0,0,0,0,0,0,0,0,0,0,0,0,0,0,0,0,0,0,0,0,0,0,0,0,0,0,0,0,0,0,0,0,0,0],"id":1,"left_children":[1,3,5,7,9,11,13,15,17,19,21,23,25,27,29,31,33,35,37,39,41,43,45,47,49,51,53,55,57,59,61,63,65,67,69,71,73,75,77,79,81,83,85,87,89,91,93,95,97,99,101,103,105,107,109,111,113,115,117,119,121,123,125,-1,-1,-1,-1,-1,-1,-1,-1,-1,-1,-1,-1,-1,-1,-1,-1,-1,-1,-1,-1,-1,-1,-1,-1,-1,-1,-1,-1,-1,-1,-1,-1,-1,-1,-1,-1,-1,-1,-1,-1,-1,-1,-1,-1,-1,-1,-1,-1,-1,-1,-1,-1,-1,-1,-1,-1,-1,-1,-1,-1,-1,-1,-1,-1],"loss_changes":[4.307786E3,8.074844E2,1.086623E3,2.6176855E2,4.3307617E2,2.4055298E2,3.1418222E2,1.4925635E2,1.074624E2,1.548197E2,1.2578586E2,6.7764404E1,1.3243234E2,1.3238979E2,1.1696573E2,8.77001E1,5.2392883E1,7.567903E1,4.6460693E1,7.0227875E1,6.843405E1,5.3830933E1,9.271915E1,6.0690292E1,2.4628662E1,8.537698E1,5.0942383E1,7.884916E1,2.842746E1,7.109623E1,3.643634E1,2.7158241E1,6.747319E1,3.0281464E1,3.610762E1,6.3812458E1,2.1808014E1,4.717041E1,7.0148926E0,3.7221527E1,3.569597E1,3.487506E1,3.932868E1,1.7474915E1,5.2708565E1,6.114706E1,2.670523E1,3.4220062E1,3.182559E1,1.3642578E1,2.5695202E1,2.6590881E1,3.7518353E1,3.0847717E1,3.5783154E1,5.1790077E1,2.1677929E1,2.6854279E1,1.46454115E1,3.9792088E1,3.0595654E1,2.2614738E1,2.052353E1,0E0,0E0,0E0,0E0,0E0,0E0,0E0,0E0,0E0,0E0,0E0,0E0,0E0,0E0,0E0,0E0,0E0,0E0,0E0,0E0,0E0,0E0,0E0,0E0,0E0,0E0,0E0,0E0,0E0,0E0,0E0,0E0,0E0,0E0,0E0,0E0,0E0,0E0,0E0,0E0,0E0,0E0,0E0,0E0,0E0,0E0,0E0,0E0,0E0,0E0,0E0,0E0,0E0,0E0,0E0,0E0,0E0,0E0,0E0,0E0,0E0,0E0,0E0,0E0],"parents":[2147483647,0,0,1,1,2,2,3,3,4,4,5,5,6,6,7,7,8,8,9,9,10,10,11,11,12,12,13,13,14,14,15,15,16,16,17,17,18,18,19,19,20,20,21,21,22,22,23,23,24,24,25,25,26,26,27,27,28,28,29,29,30,30,31,31,32,32,33,33,34,34,35,35,36,36,37,37,38,38,39,39,40,40,41,41,42,42,43,43,44,44,45,45,46,46,47,47,48,48,49,49,50,50,51,51,52,52,53,53,54,54,55,55,56,56,57,57,58,58,59,59,60,60,61,61,62,62],"right_children":[2,4,6,8,10,12,14,16,18,20,22,24,26,28,30,32,34,36,38,40,42,44,46,48,50,52,54,56,58,60,62,64,66,68,70,72,74,76,78,80,82,84,86,88,90,92,94,96,98,100,102,104,106,108,110,112,114,116,118,120,122,124,126,-1,-1,-1,-1,-1,-1,-1,-1,-1,-1,-1,-1,-1,-1,-1,-1,-1,-1,-1,-1,-1,-1,-1,-1,-1,-1,-1,-1,-1,-1,-1,-1,-1,-1,-1,-1,-1,-1,-1,-1,-1,-1,-1,-1,-1,-1,-1,-1,-1,-1,-1,-1,-1,-1,-1,-1,-1,-1,-1,-1,-1,-1,-1,-1],"split_conditions":[1.05997376E-1,1.2625672E-1,9.29709E-2,-4.817271E-1,3.965607E-3,2.7645612E-1,-1.0340495E-1,1.1258046E-1,-3.5861468E-1,1.4225373E-1,4.0919878E-2,-4.0193075E-1,3.1530505E-1,1.5265653E-1,9.050679E-2,-9.2582345E-1,1.02158286E-1,4.856272E-1,1.9346446E-1,6.6392446E-1,-2.850222E-1,-1.084319E-1,4.4146714E-1,6.569191E-1,9.941531E-1,6.804387E-1,-7.522176E-2,2.9824874E-1,9.555092E-1,4.0022632E-1,-8.456315E-1,1.6266616E-1,-8.463632E-2,7.306191E-1,2.8417656E-1,-2.2614487E-1,1.6032217E0,-4.6224523E-1,-2.1612144E0,-6.8142587E-1,3.2405034E-1,-8.1114256E-1,-9.4447756E-1,1.0256964E0,3.0549362E-1,-4.9708393E-1,-8.2233614E-1,-7.765182E-1,-1.07639834E-1,1.4468384E0,-5.3569824E-1,1.3809897E0,-1.86648E-1,4.844042E-1,3.9774117E-1,-2.9724056E-1,-1.2869048E-1,1.3392081E0,-3.2130346E-1,6.432331E-1,-4.6301296E-1,-1.446179E-1,-1.0565727E0,8.452964E-3,2.8500295E-1,-2.4700211E-1,1.9020861E-2,2.6512852E-1,3.444697E-2,1.5626024E-1,-1.0610336E-1,-1.0449519E-1,1.4802432E-1,2.7312025E-1,-1.1047405E-1,8.693586E-2,2.6223472E-1,-5.747475E-2,3.1756005E-1,-5.622041E-2,-2.86328E-1,1.3915296E-1,-1.6374503E-1,6.277444E-2,-1.8447596E-1,-1.16482556E-1,1.8148534E-1,2.8555474E-1,7.695556E-2,-2.5407085E-2,2.2151163E-1,1.049219E-1,-1.487009E-1,-4.3627586E-2,2.610717E-1,-2.931119E-2,-2.6933205E-1,-1.4010744E-1,2.269104E-1,-3.216062E-1,-1.4119695E-1,3.5739705E-2,-2.6100487E-1,-2.7429137E-1,7.748067E-2,2.2998956E-1,-1.2412504E-1,2.7557585E-1,-4.136985E-2,-1.7463797E-1,1.5998392E-1,1.0795652E-1,-1.9929369E-1,3.4323364E-2,2.499436E-1,-2.8646314E-1,1.16448656E-1,1.9420303E-1,-1.584578E-1,1.7856754E-1,-1.0726905E-1,3.9080925E-2,-2.2146538E-1,-2.0870046E-1,1.4226697E-1,-2.7928138E-2,2.768113E-1],"split_indices":[1257,126,381,254,777,777,222,381,1503,381,1371,127,321,1371,7,1257,208,381,1422,672,1271,741,493,1422,7,7,446,777,1148,181,1148,1287,321,1298,1346,672,1518,381,1217,560,652,1257,777,1173,254,560,1422,642,1167,254,166,105,1298,208,1422,703,508,134,1528,137,1012,1126,777,0,0,0,0,0,0,0,0,0,0,0,0,0,0,0,0,0,0,0,0,0,0,0,0,0,0,0,0,0,0,0,0,0,0,0,0,0,0,0,0,0,0,0,0,0,0,0,0,0,0,0,0,0,0,0,0,0,0,0,0,0,0,0,0],"split_type":[0,0,0,0,0,0,0,0,0,0,0,0,0,0,0,0,0,0,0,0,0,0,0,0,0,0,0,0,0,0,0,0,0,0,0,0,0,0,0,0,0,0,0,0,0,0,0,0,0,0,0,0,0,0,0,0,0,0,0,0,0,0,0,0,0,0,0,0,0,0,0,0,0,0,0,0,0,0,0,0,0,0,0,0,0,0,0,0,0,0,0,0,0,0,0,0,0,0,0,0,0,0,0,0,0,0,0,0,0,0,0,0,0,0,0,0,0,0,0,0,0,0,0,0,0,0,0],"sum_hessian":[6.1086436E3,3.3485046E3,2.7601387E3,2.2326382E3,1.1158666E3,1.9838242E3,7.7631445E2,5.1280786E2,1.7198303E3,5.204584E2,5.954082E2,1.6280494E3,3.5577478E2,3.5840405E2,4.179104E2,2.0941862E2,3.0338922E2,3.6505414E2,1.3547762E3,3.0926428E2,2.1119408E2,3.5338235E2,2.4202586E2,2.5026608E2,1.3777833E3,2.377559E2,1.1801886E2,1.8107504E2,1.77329E2,1.9139261E2,2.2651779E2,5.8133125E1,1.512855E2,2.176427E2,8.574654E1,1.9563263E2,1.6942151E2,5.5645245E2,7.983237E2,2.4897974E2,6.0284542E1,1.023609E2,1.08833176E2,2.1569643E2,1.3768593E2,1.6820302E2,7.382284E1,2.1440182E2,3.5864254E1,1.3207062E3,5.7077118E1,1.916754E2,4.6080505E1,5.963399E1,5.838487E1,1.057749E2,7.530015E1,1.6033289E2,1.6996119E1,1.141435E2,7.7249115E1,3.1704363E1,1.9481343E2,2.3906359E1,3.4226765E1,7.504057E1,7.624493E1,1.9145995E2,2.6182749E1,5.1832993E1,3.3913544E1,5.4974987E1,1.4065764E2,1.6377992E2,5.6415796E0,7.174478E1,4.8470767E2,1.7163528E0,7.9660736E2,3.294437E1,2.1603537E2,2.9540415E1,3.0744127E1,3.321029E1,6.915061E1,2.142146E1,8.741171E1,1.9725072E2,1.8445713E1,6.420036E1,7.348557E1,5.653528E1,1.1166774E2,1.3860891E1,5.996195E1,2.7498272E1,1.8690355E2,1.8279188E1,1.7585068E1,1.301505E3,1.9201248E1,1.5821857E1,4.1255264E1,1.8306743E2,8.60797E0,2.1703653E1,2.4376854E1,4.290928E1,1.6724712E1,4.0890038E1,1.7494831E1,2.9982857E1,7.5792046E1,3.403307E1,4.126708E1,1.5393318E2,6.3996906E0,7.6405106E0,9.355607E0,9.008824E1,2.4055264E1,2.7571722E1,4.967739E1,9.832651E0,2.1871712E1,9.096278E0,1.8571716E2],"tree_param":{"num_deleted":"0","num_feature":"1536","num_nodes":"127","size_leaf_vector":"1"}},{"base_weights":[-2.4500964E-4,7.0689523E-1,-7.19013E-1,1.0364348E0,2.0108554E-1,-1.1672788E0,2.3249276E-2,1.2527035E0,6.8682206E-1,-3.2554793E-1,6.57253E-1,-1.2742347E0,-1.9449945E-1,7.351869E-1,-4.4636747E-1,1.3254871E0,7.5337493E-1,1.1196057E0,3.4692687E-1,5.1710176E-1,-6.600599E-1,2.3104055E-1,1.1109592E0,-6.67201E-1,-1.3563937E0,3.5628605E-1,-8.324478E-1,-9.4280414E-2,1.011259E0,-8.5830635E-1,2.5441933E-1,7.973101E-1,1.3713418E0,1.8369086E-1,1.0905099E0,1.2185107E0,-7.7630742E-3,-3.2438427E-1,6.90773E-1,-3.250784E-1,8.6336154E-1,-9.8458165E-1,1.2948649E-1,-4.255474E-1,6.505533E-1,1.295534E0,5.1489097E-1,-1.0211501E0,1.426749E-1,-9.379319E-1,-1.4176911E0,-2.2648853E-1,1.0690905E0,1.2720323E-1,-1.2133073E0,-5.198611E-1,9.427367E-1,1.2029833E0,2.68739E-1,1.6789845E-1,-1.0885583E0,-2.4939312E-1,8.1789494E-1,-1.1998744E-1,2.0589355E-1,2.8289303E-1,1.9040035E-1,1.8853278E-1,-9.6678026E-2,-1.989203E-1,2.3287968E-1,5.1488854E-2,2.5885522E-1,-1.0032741E-1,2.603226E-1,-2.2875905E-1,2.5638599E-2,2.0115975E-1,3.3491638E-2,4.6596285E-2,-2.45964E-1,2.0973447E-1,-4.9690843E-2,-7.806374E-2,-2.5630185E-1,1.6014574E-1,-1.053301E-1,9.7643964E-2,-1.6823985E-1,-7.32763E-2,1.770707E-1,2.6886296E-1,2.505902E-2,1.7999552E-1,-8.738395E-2,9.163792E-2,-2.3727368E-1,-1.4010818E-1,2.019902E-1,3.412392E-2,-2.2537778E-1,-1.0492378E-1,-2.865825E-1,-1.6100378E-1,1.1195745E-1,2.6974702E-1,-3.1485815E-2,2.3272689E-1,-1.3147886E-1,2.2846721E-1,-2.6846465E-1,2.6971078E-2,-2.2803429E-1,2.4414384E-1,-6.831492E-2,2.5652143E-1,-4.676937E-2,-9.373106E-2,1.6623388E-1,1.2168282E-1,-1.9075248E-1,-2.3079054E-1,1.4673196E-1,1.1045473E-1,-1.2940718E-1,2.2090638E-1,3.394806E-3],"categories":[],"categories_nodes":[],"categories_segments":[],"categories_sizes":[],"default_left":[0,0,0,0,0,0,0,0,0,0,0,0,0,0,0,0,0,0,0,0,0,0,0,0,0,0,0,0,0,0,0,0,0,0,0,0,0,0,0,0,0,0,0,0,0,0,0,0,0,0,0,0,0,0,0,0,0,0,0,0,0,0,0,0,0,0,0,0,0,0,0,0,0,0,0,0,0,0,0,0,0,0,0,0,0,0,0,0,0,0,0,0,0,0,0,0,0,0,0,0,0,0,0,0,0,0,0,0,0,0,0,0,0,0,0,0,0,0,0,0,0,0,0,0,0,0,0],"id":2,"left_children":[1,3,5,7,9,11,13,15,17,19,21,23,25,27,29,31,33,35,37,39,41,43,45,47,49,51,53,55,57,59,61,63,65,67,69,71,73,75,77,79,81,83,85,87,89,91,93,95,97,99,101,103,105,107,109,111,113,115,117,119,121,123,125,-1,-1,-1,-1,-1,-1,-1,-1,-1,-1,-1,-1,-1,-1,-1,-1,-1,-1,-1,-1,-1,-1,-1,-1,-1,-1,-1,-1,-1,-1,-1,-1,-1,-1,-1,-1,-1,-1,-1,-1,-1,-1,-1,-1,-1,-1,-1,-1,-1,-1,-1,-1,-1,-1,-1,-1,-1,-1,-1,-1,-1,-1,-1,-1],"loss_changes":[2.9636409E3,4.8970935E2,9.6216724E2,1.3368542E2,2.7906042E2,1.8733228E2,3.646772E2,3.891211E1,9.997705E1,1.5239209E2,1.2008258E2,8.009497E1,6.3462627E1,9.936636E1,1.8995464E2,2.2088013E1,2.7077126E1,3.342505E1,8.877068E1,4.5144684E1,9.9177826E1,8.900923E1,3.2467407E1,5.6209503E1,3.5338867E1,4.0609318E1,3.0707169E1,4.867055E1,4.5992035E1,9.804309E1,6.949788E1,2.6194336E1,1.4554199E1,2.7797922E1,1.4873215E1,1.9728912E1,1.6926119E1,4.858368E1,4.1704185E1,2.3285234E1,2.2779121E1,4.7862885E1,5.0406235E1,4.833846E1,4.735151E1,1.2921326E1,2.7101503E1,3.3837997E1,4.4847496E1,3.9070145E1,1.617163E1,2.5146084E1,1.5264832E1,2.0814232E1,1.9749588E1,3.1851463E1,1.1884777E1,2.9849579E1,2.8613676E1,3.8509808E1,4.117102E1,4.1681717E1,2.6486992E1,0E0,0E0,0E0,0E0,0E0,0E0,0E0,0E0,0E0,0E0,0E0,0E0,0E0,0E0,0E0,0E0,0E0,0E0,0E0,0E0,0E0,0E0,0E0,0E0,0E0,0E0,0E0,0E0,0E0,0E0,0E0,0E0,0E0,0E0,0E0,0E0,0E0,0E0,0E0,0E0,0E0,0E0,0E0,0E0,0E0,0E0,0E0,0E0,0E0,0E0,0E0,0E0,0E0,0E0,0E0,0E0,0E0,0E0,0E0,0E0,0E0,0E0,0E0,0E0],"parents":[2147483647,0,0,1,1,2,2,3,3,4,4,5,5,6,6,7,7,8,8,9,9,10,10,11,11,12,12,13,13,14,14,15,15,16,16,17,17,18,18,19,19,20,20,21,21,22,22,23,23,24,24,25,25,26,26,27,27,28,28,29,29,30,30,31,31,32,32,33,33,34,34,35,35,36,36,37,37,38,38,39,39,40,40,41,41,42,42,43,43,44,44,45,45,46,46,47,47,48,48,49,49,50,50,51,51,52,52,53,53,54,54,55,55,56,56,57,57,58,58,59,59,60,60,61,61,62,62],"right_children":[2,4,6,8,10,12,14,16,18,20,22,24,26,28,30,32,34,36,38,40,42,44,46,48,50,52,54,56,58,60,62,64,66,68,70,72,74,76,78,80,82,84,86,88,90,92,94,96,98,100,102,104,106,108,110,112,114,116,118,120,122,124,126,-1,-1,-1,-1,-1,-1,-1,-1,-1,-1,-1,-1,-1,-1,-1,-1,-1,-1,-1,-1,-1,-1,-1,-1,-1,-1,-1,-1,-1,-1,-1,-1,-1,-1,-1,-1,-1,-1,-1,-1,-1,-1,-1,-1,-1,-1,-1,-1,-1,-1,-1,-1,-1,-1,-1,-1,-1,-1,-1,-1,-1,-1,-1,-1],"split_conditions":[-2.1343254E-2,-7.914562E-2,-9.418238E-2,4.385583E-2,-8.103869E-2,6.2396103E-1,-2.7020907E-1,6.436387E-1,-3.3913672E-1,-5.3059775E-1,1.2997665E-1,-5.758121E-1,-7.51189E-2,-5.653604E-1,1.3329042E-1,-8.667973E-1,2.747194E-1,8.376256E-1,-4.558817E-3,-3.6717927E-1,5.336579E-1,-1.8613085E-1,4.53253E-1,2.9729742E-1,-3.698788E-1,3.0157888E-1,-2.9254454E-1,5.752213E-1,5.7372206E-1,-6.584488E-1,3.47061E-2,-6.416448E-1,9.385087E-1,-3.357622E-1,-2.3596568E0,-1.1469342E0,6.159713E-1,-5.210025E-1,-1.1671109E-1,8.557559E-2,6.115849E-1,-1.5454496E-1,3.0180763E-2,-2.8938222E-1,-7.032636E-1,1.5478601E0,3.4016806E-1,-1.1493365E0,-3.0281174E-1,-1.0368098E0,-1.3340365E0,1.2078618E-1,7.8428173E-1,-3.2007638E-1,-1.5874434E0,-1.7805184E-1,8.163686E-1,1.3566889E0,9.060029E-2,7.9305524E-1,1.8445562E0,-1.829617E-1,1.3877769E-1,-1.1998744E-1,2.0589355E-1,2.8289303E-1,1.9040035E-1,1.8853278E-1,-9.6678026E-2,-1.989203E-1,2.3287968E-1,5.1488854E-2,2.5885522E-1,-1.0032741E-1,2.603226E-1,-2.2875905E-1,2.5638599E-2,2.0115975E-1,3.3491638E-2,4.6596285E-2,-2.45964E-1,2.0973447E-1,-4.9690843E-2,-7.806374E-2,-2.5630185E-1,1.6014574E-1,-1.053301E-1,9.7643964E-2,-1.6823985E-1,-7.32763E-2,1.770707E-1,2.6886296E-1,2.505902E-2,1.7999552E-1,-8.738395E-2,9.163792E-2,-2.3727368E-1,-1.4010818E-1,2.019902E-1,3.412392E-2,-2.2537778E-1,-1.0492378E-1,-2.865825E-1,-1.6100378E-1,1.1195745E-1,2.6974702E-1,-3.1485815E-2,2.3272689E-1,-1.3147886E-1,2.2846721E-1,-2.6846465E-1,2.6971078E-2,-2.2803429E-1,2.4414384E-1,-6.831492E-2,2.5652143E-1,-4.676937E-2,-9.373106E-2,1.6623388E-1,1.2168282E-1,-1.9075248E-1,-2.3079054E-1,1.4673196E-1,1.1045473E-1,-1.2940718E-1,2.2090638E-1,3.394806E-3],"split_indices":[1257,1371,381,1388,1422,777,126,26,703,181,254,741,127,254,1503,1503,405,126,321,1148,381,275,556,7,1205,1422,1371,222,117,26,860,381,931,751,483,1081,254,275,208,576,801,560,1518,1060,1452,485,146,150,777,642,137,100,751,1430,576,208,329,181,100,1312,346,741,1060,0,0,0,0,0,0,0,0,0,0,0,0,0,0,0,0,0,0,0,0,0,0,0,0,0,0,0,0,0,0,0,0,0,0,0,0,0,0,0,0,0,0,0,0,0,0,0,0,0,0,0,0,0,0,0,0,0,0,0,0,0,0,0,0],"split_type":[0,0,0,0,0,0,0,0,0,0,0,0,0,0,0,0,0,0,0,0,0,0,0,0,0,0,0,0,0,0,0,0,0,0,0,0,0,0,0,0,0,0,0,0,0,0,0,0,0,0,0,0,0,0,0,0,0,0,0,0,0,0,0,0,0,0,0,0,0,0,0,0,0,0,0,0,0,0,0,0,0,0,0,0,0,0,0,0,0,0,0,0,0,0,0,0,0,0,0,0,0,0,0,0,0,0,0,0,0,0,0,0,0,0,0,0,0,0,0,0,0,0,0,0,0,0,0],"sum_hessian":[5.8288423E3,2.9381953E3,2.8906467E3,1.7784623E3,1.159733E3,1.8018837E3,1.0887631E3,1.0971731E3,6.812892E2,5.384235E2,6.213096E2,1.6231143E3,1.7876933E2,4.3251147E2,6.5625165E2,9.5614777E2,1.4102539E2,2.9868454E2,3.8260464E2,1.5284776E2,3.8557574E2,3.2113962E2,3.0016995E2,1.9457953E2,1.4285348E3,9.617566E1,8.2593666E1,1.08169945E2,3.2434152E2,4.131611E2,2.4309055E2,7.784764E1,8.783001E2,5.3004417E1,8.802097E1,2.745198E2,2.4164713E1,1.2961203E2,2.529926E2,4.455102E1,1.0829674E2,2.7308466E2,1.124911E2,1.2518914E2,1.9595047E2,2.2830193E2,7.186802E1,1.3522136E2,5.935818E1,1.8460251E2,1.2439323E3,5.3289494E1,4.2886166E1,2.3655342E1,5.8938324E1,7.704869E1,3.1121262E1,2.5728775E2,6.705378E1,7.576345E1,3.3739764E2,1.2863414E2,1.1445641E2,1.0866015E1,6.698162E1,7.942495E2,8.4050606E1,2.4601212E1,2.8403206E1,2.585934E0,8.5435036E1,2.0381613E1,2.541382E2,1.7994417E1,6.170295E0,4.5572933E1,8.403909E1,1.573493E2,9.56433E1,2.8014004E1,1.6537018E1,9.287386E1,1.5422872E1,9.175772E1,1.8132693E2,5.549656E1,5.699454E1,3.9086643E1,8.61025E1,3.6651234E1,1.5929924E2,2.190233E2,9.278631E0,5.1205563E1,2.0662458E1,1.3406683E1,1.2181467E2,3.0194044E1,2.9164139E1,2.6897907E1,1.577046E2,2.1440409E1,1.2224918E3,3.0686771E1,2.2602722E1,3.4842484E1,8.043679E0,9.983854E0,1.3671488E1,2.652545E0,5.628578E1,3.7865513E1,3.9183174E1,2.5624487E1,5.496774E0,2.4388014E2,1.3407601E1,2.9086123E1,3.796766E1,5.4727585E1,2.103587E1,3.2606287E2,1.1334765E1,4.252097E1,8.6113174E1,8.4011086E1,3.0445322E1],"tree_param":{"num_deleted":"0","num_feature":"1536","num_nodes":"127","size_leaf_vector":"1"}},{"base_weights":[-4.7981515E-4,4.4950905E-1,-8.6763805E-1,-1.9091617E-1,7.555669E-1,-1.1994821E0,-3.1867093E-1,-5.775255E-1,5.5082995E-1,1.2684955E-1,9.3376976E-1,-7.856052E-1,-1.2863514E0,3.2253653E-1,-7.658305E-1,1.5015817E-1,-9.0126663E-1,9.6049315E-1,1.13315605E-1,4.3473396E-1,-5.451892E-1,1.1392897E0,6.1970276E-1,9.4963896E-1,-9.1524804E-1,-1.3008132E0,3.4641936E-1,9.667411E-1,-1.5107967E-1,-1.0693871E0,-1.2513632E-1,-2.3109809E-1,8.946156E-1,-1.023863E0,1.7285915E-1,-3.0326875E-2,1.0927606E0,6.8566525E-1,-2.9951435E-1,-1.3723223E-1,8.0056375E-1,-1.8887664E-1,-1.3177564E0,5.806441E-1,1.196884E0,1.687856E-1,9.3245804E-1,1.7444766E0,-4.0666458E-1,-8.542433E-2,-1.0881945E0,-9.6260846E-1,-1.3386741E0,-1.9357416E-1,1.0944495E0,2.1081658E-1,1.21159E0,-5.7605624E-1,6.77837E-1,3.624115E-2,-1.1974559E0,3.7068328E-1,-7.6066256E-1,5.206684E-2,-1.6724718E-1,2.500418E-1,5.5629622E-2,-2.3058937E-1,-3.3838067E-2,2.1653E-1,-7.860258E-2,1.3592279E-1,-1.8243997E-1,2.6889456E-2,2.3515521E-1,1.7423241E-1,-1.473727E-1,2.6355658E-2,-2.0551229E-1,-1.2580936E-1,1.3522157E-1,2.2339332E-1,7.237517E-2,1.9524497E-1,-9.495936E-2,8.0340706E-2,-2.868833E-1,1.8569092E-1,-3.4928266E-2,2.5618008E-1,1.7434375E-1,1.07254125E-1,-8.38803E-2,2.1980353E-1,6.11794E-2,8.8523306E-2,3.7316898E-1,1.8371333E-1,-2.3008783E-1,-1.4393719E-1,1.4673734E-1,8.505698E-2,-2.2914791E-1,-2.3099744E-1,6.1542775E-2,-2.685339E-1,7.331046E-2,3.1684998E-1,-1.4465259E-1,-8.167996E-2,2.0877574E-1,-1.6701658E-1,2.5407225E-1,-1.905481E-1,3.9497625E-2,2.4950075E-1,-1.6311934E-2,1.6762677E-1,-1.9937979E-1,-4.130827E-2,-2.5336853E-1,1.3598718E-1,-1.4034538E-1,1.6750006E-1,-1.9341676E-1],"categories":[],"categories_nodes":[],"categories_segments":[],"categories_sizes":[],"default_left":[0,0,0,0,0,0,0,0,0,0,0,0,0,0,0,0,0,0,0,0,0,0,0,0,0,0,0,0,0,0,0,0,0,0,0,0,0,0,0,0,0,0,0,0,0,0,0,0,0,0,0,0,0,0,0,0,0,0,0,0,0,0,0,0,0,0,0,0,0,0,0,0,0,0,0,0,0,0,0,0,0,0,0,0,0,0,0,0,0,0,0,0,0,0,0,0,0,0,0,0,0,0,0,0,0,0,0,0,0,0,0,0,0,0,0,0,0,0,0,0,0,0,0,0,0],"id":3,"left_children":[1,3,5,7,9,11,13,15,17,19,21,23,25,27,29,31,33,35,37,39,41,43,45,47,49,51,53,55,57,59,61,63,65,67,69,71,73,75,77,79,81,83,85,87,89,91,93,95,97,99,101,103,105,-1,107,109,111,113,115,117,119,121,123,-1,-1,-1,-1,-1,-1,-1,-1,-1,-1,-1,-1,-1,-1,-1,-1,-1,-1,-1,-1,-1,-1,-1,-1,-1,-1,-1,-1,-1,-1,-1,-1,-1,-1,-1,-1,-1,-1,-1,-1,-1,-1,-1,-1,-1,-1,-1,-1,-1,-1,-1,-1,-1,-1,-1,-1,-1,-1,-1,-1,-1,-1],"loss_changes":[2.1437922E3,7.090991E2,3.4154236E2,3.359485E2,2.741073E2,4.1034546E1,2.0338812E2,1.8150266E2,7.185812E1,1.1231828E2,1.2237866E2,4.7086174E1,2.3236816E1,8.917327E1,8.110405E1,6.773143E1,7.0359924E1,2.7191238E1,4.6350693E1,7.7958786E1,4.6723713E1,3.6352295E1,1.065231E2,1.6635073E1,2.7414719E1,1.096228E1,1.0164815E1,2.26521E1,5.9933075E1,4.0156006E1,4.2952198E1,4.7242157E1,1.7360016E1,5.2596436E1,2.8974815E1,1.6508968E1,1.438858E1,2.2316914E1,3.5980404E1,5.8822826E1,3.1112534E1,3.975459E1,1.1346397E1,2.8942299E1,2.7374146E1,6.745205E1,4.6253693E1,6.757164E-1,7.2363663E0,1.8266064E1,1.4294052E1,2.4764534E1,6.336548E0,0E0,6.8186846E0,1.6670927E1,1.2280426E1,3.2904217E1,2.5083033E1,2.6003107E1,1.7196198E1,2.5927963E1,2.0496162E1,0E0,0E0,0E0,0E0,0E0,0E0,0E0,0E0,0E0,0E0,0E0,0E0,0E0,0E0,0E0,0E0,0E0,0E0,0E0,0E0,0E0,0E0,0E0,0E0,0E0,0E0,0E0,0E0,0E0,0E0,0E0,0E0,0E0,0E0,0E0,0E0,0E0,0E0,0E0,0E0,0E0,0E0,0E0,0E0,0E0,0E0,0E0,0E0,0E0,0E0,0E0,0E0,0E0,0E0,0E0,0E0,0E0,0E0,0E0,0E0,0E0,0E0],"parents":[2147483647,0,0,1,1,2,2,3,3,4,4,5,5,6,6,7,7,8,8,9,9,10,10,11,11,12,12,13,13,14,14,15,15,16,16,17,17,18,18,19,19,20,20,21,21,22,22,23,23,24,24,25,25,26,26,27,27,28,28,29,29,30,30,31,31,32,32,33,33,34,34,35,35,36,36,37,37,38,38,39,39,40,40,41,41,42,42,43,43,44,44,45,45,46,46,47,47,48,48,49,49,50,50,51,51,52,52,54,54,55,55,56,56,57,57,58,58,59,59,60,60,61,61,62,62],"right_children":[2,4,6,8,10,12,14,16,18,20,22,24,26,28,30,32,34,36,38,40,42,44,46,48,50,52,54,56,58,60,62,64,66,68,70,72,74,76,78,80,82,84,86,88,90,92,94,96,98,100,102,104,106,-1,108,110,112,114,116,118,120,122,124,-1,-1,-1,-1,-1,-1,-1,-1,-1,-1,-1,-1,-1,-1,-1,-1,-1,-1,-1,-1,-1,-1,-1,-1,-1,-1,-1,-1,-1,-1,-1,-1,-1,-1,-1,-1,-1,-1,-1,-1,-1,-1,-1,-1,-1,-1,-1,-1,-1,-1,-1,-1,-1,-1,-1,-1,-1,-1,-1,-1,-1,-1],"split_conditions":[3.827759E-1,-1.6627313E-1,-2.3904659E-1,4.5176286E-1,-5.026659E-1,-3.688219E-1,-9.7704336E-2,-3.7984285E-1,-2.8029108E-1,4.2220196E-1,-7.275421E-2,-1.5324434E0,1.7356956E0,-3.242746E-1,1.2107155E-1,4.5078468E-1,1.0269581E0,-9.3600404E-1,2.2861514E-2,-2.114573E-1,5.3525406E-1,-8.804999E-1,9.048322E-2,-6.875529E-2,-3.5675514E-1,-5.691605E-1,-4.2328632E-1,-2.8596404E-1,5.950866E-1,-1.1302251E0,-3.007075E-1,1.757376E-1,-3.4499478E-1,6.781059E-1,-4.110555E-1,-4.4334328E-1,-8.804999E-1,9.209398E-1,2.5016865E-1,6.045223E-1,-7.0142165E-2,-7.4338037E-1,-1.0425411E0,1.10240266E-1,5.463058E-1,-1.3256047E-2,5.6599414E-1,-7.0093143E-1,-1.7370309E-1,2.6929608E-1,-1.4479473E0,4.0804684E-1,2.1877134E0,-1.9357416E-1,1.2272038E0,5.9591335E-1,-1.7561916E0,3.3965653E-1,-2.5166333E-1,2.1240006E-1,-1.109403E0,6.5166384E-1,-1.1048484E0,5.206684E-2,-1.6724718E-1,2.500418E-1,5.5629622E-2,-2.3058937E-1,-3.3838067E-2,2.1653E-1,-7.860258E-2,1.3592279E-1,-1.8243997E-1,2.6889456E-2,2.3515521E-1,1.7423241E-1,-1.473727E-1,2.6355658E-2,-2.0551229E-1,-1.2580936E-1,1.3522157E-1,2.2339332E-1,7.237517E-2,1.9524497E-1,-9.495936E-2,8.0340706E-2,-2.868833E-1,1.8569092E-1,-3.4928266E-2,2.5618008E-1,1.7434375E-1,1.07254125E-1,-8.38803E-2,2.1980353E-1,6.11794E-2,8.8523306E-2,3.7316898E-1,1.8371333E-1,-2.3008783E-1,-1.4393719E-1,1.4673734E-1,8.505698E-2,-2.2914791E-1,-2.3099744E-1,6.1542775E-2,-2.685339E-1,7.331046E-2,3.1684998E-1,-1.4465259E-1,-8.167996E-2,2.0877574E-1,-1.6701658E-1,2.5407225E-1,-1.905481E-1,3.9497625E-2,2.4950075E-1,-1.6311934E-2,1.6762677E-1,-1.9937979E-1,-4.130827E-2,-2.5336853E-1,1.3598718E-1,-1.4034538E-1,1.6750006E-1,-1.9341676E-1],"split_indices":[1257,777,381,381,174,127,741,1205,556,181,556,446,7,1371,777,1391,1503,7,26,1422,343,1503,1342,830,126,208,1336,1170,275,172,351,556,1257,222,127,423,1503,575,377,1401,719,874,149,127,166,127,703,103,1059,850,1318,321,207,0,1029,860,1054,222,1025,1159,137,811,127,0,0,0,0,0,0,0,0,0,0,0,0,0,0,0,0,0,0,0,0,0,0,0,0,0,0,0,0,0,0,0,0,0,0,0,0,0,0,0,0,0,0,0,0,0,0,0,0,0,0,0,0,0,0,0,0,0,0,0,0,0,0],"split_type":[0,0,0,0,0,0,0,0,0,0,0,0,0,0,0,0,0,0,0,0,0,0,0,0,0,0,0,0,0,0,0,0,0,0,0,0,0,0,0,0,0,0,0,0,0,0,0,0,0,0,0,0,0,0,0,0,0,0,0,0,0,0,0,0,0,0,0,0,0,0,0,0,0,0,0,0,0,0,0,0,0,0,0,0,0,0,0,0,0,0,0,0,0,0,0,0,0,0,0,0,0,0,0,0,0,0,0,0,0,0,0,0,0,0,0,0,0,0,0,0,0,0,0,0,0],"sum_hessian":[5.4919233E3,3.6159849E3,1.8759382E3,1.1693982E3,2.4465867E3,1.1684434E3,7.074949E2,7.688719E2,4.005263E2,5.4069025E2,1.9058965E3,2.0444373E2,9.6399963E2,2.9079138E2,4.1670352E2,2.3690617E2,5.319657E2,2.0622952E2,1.942968E2,3.7105164E2,1.696386E2,1.1504406E3,7.554559E2,1.3772774E1,1.9067094E2,9.5573785E2,8.261789E0,1.2276601E2,1.6802538E2,2.8228818E2,1.3441534E2,1.5712692E2,7.977925E1,4.7751132E2,5.4454395E1,2.4378685E1,1.8185085E2,8.114124E1,1.1315555E2,1.4498926E2,2.2606238E2,1.169466E2,5.2691986E1,1.08556786E2,1.0418838E3,3.1002084E2,4.4543503E2,8.503342E0,5.2694316E0,3.314243E1,1.5752852E2,9.888065E1,8.568572E2,2.8900588E0,5.371731E0,3.0491209E1,9.2274796E1,1.1127893E2,5.674645E1,2.9378471E1,2.529097E2,7.574105E1,5.867429E1,8.70243E1,7.0102615E1,4.994294E1,2.9836313E1,4.1455133E2,6.295998E1,2.0531412E1,3.392298E1,1.36329775E1,1.07457075E1,1.4706098E1,1.6714474E2,7.2123924E1,9.017318E0,7.157422E1,4.158133E1,9.049492E1,5.449434E1,1.3043803E2,9.5624344E1,2.2568296E1,9.43783E1,3.1926012E0,4.9499386E1,7.417141E1,3.4385372E1,8.2562067E2,2.162631E2,1.908627E2,1.1915813E2,3.5129556E2,9.413946E1,1.1214087E0,7.381933E0,1.8097955E0,3.4596362E0,1.874726E1,1.4395168E1,5.536039E0,1.5199248E2,8.595443E1,1.2926224E1,8.550664E2,1.7907712E0,4.332684E0,1.0390465E0,1.7782907E1,1.2708302E1,2.207031E0,9.0067764E1,7.46808E1,3.6598133E1,3.2056377E1,2.4690071E1,1.6646614E1,1.2731857E1,1.681077E1,2.3609894E2,5.9072258E1,1.6668789E1,6.361875E0,5.2312416E1],"tree_param":{"num_deleted":"0","num_feature":"1536","num_nodes":"125","size_leaf_vector":"1"}},{"base_weights":[-9.941213E-4,6.5416175E-1,-4.5625603E-1,9.1984445E-1,2.7925265E-1,-9.627071E-1,5.0827574E-2,5.502647E-1,1.0837144E0,-1.1351168E-1,7.091991E-1,-1.0699657E0,-1.5139882E-1,-5.1721144E-1,4.5130283E-1,9.042178E-1,1.0375619E-1,1.1631085E0,6.42793E-1,-5.5472356E-1,3.8853875E-1,1.0063875E0,3.3362722E-1,-1.1257086E0,-1.6765612E-1,-6.534504E-1,3.329767E-1,3.5813037E-1,-7.427907E-1,8.8487256E-1,2.7984753E-3,-8.952428E-1,9.7783405E-1,5.528175E-1,-3.9671558E-1,1.1922448E0,3.6848193E-1,7.95818E-1,-6.77015E-1,-9.333666E-1,3.444713E-2,7.498249E-1,-1.4074805E-1,1.0702652E0,-2.1546283E-1,7.0780593E-1,-2.021198E-1,-5.4022577E-2,-1.156301E0,-5.61834E-1,7.786923E-1,9.23367E-1,-8.5814923E-1,-6.528101E-2,1.0925096E0,8.068579E-1,-3.923756E-1,-1.6907513E-1,-9.8680615E-1,1.0606445E0,2.9570234E-1,3.3731595E-1,-5.855604E-1,-3.2651424E-1,1.7634691E-1,3.723565E-2,2.1849099E-1,-9.714535E-2,1.535999E-1,-1.856349E-1,6.834093E-2,3.0746806E-2,2.4194722E-1,-2.3579602E-1,1.4058113E-1,-4.273818E-2,1.9131434E-1,-2.6348248E-1,1.387013E-1,-2.1620297E-1,4.790236E-2,-1.7643885E-1,9.428932E-2,-2.9617174E-2,1.877694E-1,4.653046E-2,-2.0579906E-1,9.893019E-3,2.2692095E-1,1.4060478E-1,-2.52341E-1,1.3890925E-2,2.2122203E-1,1.3894592E-1,-1.0391901E-1,1.9220707E-1,-1.4922172E-1,-2.412958E-1,-1.5192927E-1,-1.9328766E-1,1.0881883E-1,-6.665334E-2,2.7260217E-1,-1.821917E-1,2.494279E-1,1.1716091E-1,-2.0983489E-1,-9.466168E-2,1.679552E-1,-2.0254984E-1,2.442185E-1,-9.89171E-2,2.1099281E-1,1.3784598E-1,-1.6655807E-1,-1.2170215E-1,8.238851E-2,-1.7788783E-2,-2.1999729E-1,2.2657107E-1,2.49028E-2,1.8679452E-1,-2.0056201E-2,1.2629096E-1,-6.638703E-2,8.065757E-2,-1.5855406E-1],"categories":[],"categories_nodes":[],"categories_segments":[],"categories_sizes":[],"default_left":[0,0,0,0,0,0,0,0,0,0,0,0,0,0,0,0,0,0,0,0,0,0,0,0,0,0,0,0,0,0,0,0,0,0,0,0,0,0,0,0,0,0,0,0,0,0,0,0,0,0,0,0,0,0,0,0,0,0,0,0,0,0,0,0,0,0,0,0,0,0,0,0,0,0,0,0,0,0,0,0,0,0,0,0,0,0,0,0,0,0,0,0,0,0,0,0,0,0,0,0,0,0,0,0,0,0,0,0,0,0,0,0,0,0,0,0,0,0,0,0,0,0,0,0,0,0,0],"id":4,"left_children":[1,3,5,7,9,11,13,15,17,19,21,23,25,27,29,31,33,35,37,39,41,43,45,47,49,51,53,55,57,59,61,63,65,67,69,71,73,75,77,79,81,83,85,87,89,91,93,95,97,99,101,103,105,107,109,111,113,115,117,119,121,123,125,-1,-1,-1,-1,-1,-1,-1,-1,-1,-1,-1,-1,-1,-1,-1,-1,-1,-1,-1,-1,-1,-1,-1,-1,-1,-1,-1,-1,-1,-1,-1,-1,-1,-1,-1,-1,-1,-1,-1,-1,-1,-1,-1,-1,-1,-1,-1,-1,-1,-1,-1,-1,-1,-1,-1,-1,-1,-1,-1,-1,-1,-1,-1,-1],"loss_changes":[1.53422E3,2.0980444E2,7.7944244E2,7.412683E1,1.4802448E2,1.3197168E2,3.4542838E2,6.0127594E1,2.913977E1,1.0182392E2,4.6362885E1,6.725806E1,4.3617706E1,1.2425394E2,1.7316602E2,2.9014877E1,3.8340622E1,1.6282654E1,2.7300964E1,5.4589485E1,4.1247112E1,1.842157E1,3.7493046E1,4.133789E1,2.9980282E1,2.9187515E1,2.7747768E1,4.3873188E1,6.97724E1,4.6577667E1,8.654553E1,1.3062073E1,1.8357666E1,2.044583E1,3.202685E1,1.2461548E1,1.479793E1,1.954879E1,1.3471369E1,2.6046844E1,3.912885E1,2.1868141E1,2.9467337E1,1.4501968E1,1.28143425E1,2.7871677E1,2.2397404E1,2.6074457E1,2.3518188E1,2.5803116E1,1.5857416E1,7.425459E0,2.2235031E1,2.2911633E1,9.77158E0,2.6762882E1,2.3947447E1,3.862138E1,3.549945E1,2.3407837E1,2.6741005E1,5.5393906E1,3.2978794E1,0E0,0E0,0E0,0E0,0E0,0E0,0E0,0E0,0E0,0E0,0E0,0E0,0E0,0E0,0E0,0E0,0E0,0E0,0E0,0E0,0E0,0E0,0E0,0E0,0E0,0E0,0E0,0E0,0E0,0E0,0E0,0E0,0E0,0E0,0E0,0E0,0E0,0E0,0E0,0E0,0E0,0E0,0E0,0E0,0E0,0E0,0E0,0E0,0E0,0E0,0E0,0E0,0E0,0E0,0E0,0E0,0E0,0E0,0E0,0E0,0E0,0E0,0E0,0E0],"parents":[2147483647,0,0,1,1,2,2,3,3,4,4,5,5,6,6,7,7,8,8,9,9,10,10,11,11,12,12,13,13,14,14,15,15,16,16,17,17,18,18,19,19,20,20,21,21,22,22,23,23,24,24,25,25,26,26,27,27,28,28,29,29,30,30,31,31,32,32,33,33,34,34,35,35,36,36,37,37,38,38,39,39,40,40,41,41,42,42,43,43,44,44,45,45,46,46,47,47,48,48,49,49,50,50,51,51,52,52,53,53,54,54,55,55,56,56,57,57,58,58,59,59,60,60,61,61,62,62],"right_children":[2,4,6,8,10,12,14,16,18,20,22,24,26,28,30,32,34,36,38,40,42,44,46,48,50,52,54,56,58,60,62,64,66,68,70,72,74,76,78,80,82,84,86,88,90,92,94,96,98,100,102,104,106,108,110,112,114,116,118,120,122,124,126,-1,-1,-1,-1,-1,-1,-1,-1,-1,-1,-1,-1,-1,-1,-1,-1,-1,-1,-1,-1,-1,-1,-1,-1,-1,-1,-1,-1,-1,-1,-1,-1,-1,-1,-1,-1,-1,-1,-1,-1,-1,-1,-1,-1,-1,-1,-1,-1,-1,-1,-1,-1,-1,-1,-1,-1,-1,-1,-1,-1,-1,-1,-1,-1],"split_conditions":[-2.8087673E-1,-1.5677199E-1,-2.586527E-1,-2.2737628E-1,2.2427E-1,6.2396103E-1,-1.1628932E-1,-4.1485202E-1,6.127392E-1,3.260518E-1,-8.910458E-2,1.0114428E0,4.4058204E-2,-8.628923E-1,-1.5438092E-1,-1.2385277E0,-1.3769351E-1,1.0908742E0,7.538219E-1,2.8432465E-1,2.6150766E-1,1.440042E0,3.388234E-2,-1.3340365E0,5.959826E-1,-1.2871277E0,5.100191E-1,2.1240006E-1,-3.651153E-1,5.470406E-1,2.3631497E-1,7.5613064E-1,-1.0759878E0,-7.3542875E-1,4.3147442E-1,-1.5765027E0,-1.0829964E0,-1.0170963E0,6.5811795E-1,9.653546E-1,-5.5884165E-1,-5.3133994E-1,3.3793777E-1,-1.2421223E0,-9.581991E-2,-3.0314773E-1,-6.082863E-1,-4.0193075E-1,5.791447E-1,4.5131826E-1,-5.05097E-1,-1.4688106E0,-1.0783137E0,3.6848575E-1,-1.1198474E0,-9.041247E-1,-7.429037E-1,-1.2800726E-1,-7.8757226E-1,1.2268021E0,-7.009678E-1,5.865008E-1,-7.064483E-1,-3.2651424E-1,1.7634691E-1,3.723565E-2,2.1849099E-1,-9.714535E-2,1.535999E-1,-1.856349E-1,6.834093E-2,3.0746806E-2,2.4194722E-1,-2.3579602E-1,1.4058113E-1,-4.273818E-2,1.9131434E-1,-2.6348248E-1,1.387013E-1,-2.1620297E-1,4.790236E-2,-1.7643885E-1,9.428932E-2,-2.9617174E-2,1.877694E-1,4.653046E-2,-2.0579906E-1,9.893019E-3,2.2692095E-1,1.4060478E-1,-2.52341E-1,1.3890925E-2,2.2122203E-1,1.3894592E-1,-1.0391901E-1,1.9220707E-1,-1.4922172E-1,-2.412958E-1,-1.5192927E-1,-1.9328766E-1,1.0881883E-1,-6.665334E-2,2.7260217E-1,-1.821917E-1,2.494279E-1,1.1716091E-1,-2.0983489E-1,-9.466168E-2,1.679552E-1,-2.0254984E-1,2.442185E-1,-9.89171E-2,2.1099281E-1,1.3784598E-1,-1.6655807E-1,-1.2170215E-1,8.238851E-2,-1.7788783E-2,-2.1999729E-1,2.2657107E-1,2.49028E-2,1.8679452E-1,-2.0056201E-2,1.2629096E-1,-6.638703E-2,8.065757E-2,-1.5855406E-1],"split_indices":[1257,181,381,488,254,777,777,703,1388,321,787,1503,321,172,26,1342,460,126,1312,488,166,446,343,137,1411,446,672,1159,900,446,1371,1465,100,113,381,535,1224,1185,275,1202,7,1186,127,486,210,4,286,127,7,254,1391,1013,208,174,895,1148,1470,254,181,1518,1371,703,1,0,0,0,0,0,0,0,0,0,0,0,0,0,0,0,0,0,0,0,0,0,0,0,0,0,0,0,0,0,0,0,0,0,0,0,0,0,0,0,0,0,0,0,0,0,0,0,0,0,0,0,0,0,0,0,0,0,0,0,0,0,0,0,0],"split_type":[0,0,0,0,0,0,0,0,0,0,0,0,0,0,0,0,0,0,0,0,0,0,0,0,0,0,0,0,0,0,0,0,0,0,0,0,0,0,0,0,0,0,0,0,0,0,0,0,0,0,0,0,0,0,0,0,0,0,0,0,0,0,0,0,0,0,0,0,0,0,0,0,0,0,0,0,0,0,0,0,0,0,0,0,0,0,0,0,0,0,0,0,0,0,0,0,0,0,0,0,0,0,0,0,0,0,0,0,0,0,0,0,0,0,0,0,0,0,0,0,0,0,0,0,0,0,0],"sum_hessian":[5.141771E3,2.1079036E3,3.0338677E3,1.2328091E3,8.7509454E2,1.517431E3,1.5164366E3,3.8004437E2,8.527647E2,4.5770667E2,4.1738788E2,1.339963E3,1.77468E2,6.2691754E2,8.8951904E2,2.1142221E2,1.6862216E2,7.2125476E2,1.3150992E2,2.4355807E2,2.1414859E2,2.3207126E2,1.853166E2,1.2617661E3,7.81969E1,8.697255E1,9.049546E1,1.2833531E2,4.9858224E2,4.5179517E2,4.3772385E2,7.8707356E0,2.0355148E2,8.88208E1,7.980137E1,6.9526154E2,2.5993238E1,1.1820201E2,1.33079E1,1.4791388E2,9.56442E1,1.2702551E2,8.712308E1,2.2065936E2,1.1411899E1,1.08921814E2,7.639479E1,3.5095596E1,1.2266705E3,5.549017E1,2.2706732E1,9.589868E0,7.7382675E1,5.9966396E1,3.0529062E1,8.026799E1,4.8067318E1,1.4928487E2,3.492974E2,3.473632E2,1.04431984E2,2.7933292E2,1.5839093E2,5.6200504E0,2.2506852E0,2.607597E1,1.7747551E2,1.502887E1,7.379193E1,4.6254154E1,3.354721E1,1.1678327E1,6.835832E2,4.1703906E0,2.1822847E1,1.6191647E1,1.0201037E2,9.096275E0,4.211625E0,1.3144518E2,1.6468706E1,3.0548183E1,6.5096016E1,2.212792E1,1.0489759E2,6.1857548E1,2.5265528E1,1.3188079E1,2.0747128E2,6.251665E0,5.1602335E0,4.23012E1,6.662061E1,1.9662123E1,5.673267E1,1.4070414E1,2.1025183E1,1.0871067E3,1.3956383E2,4.071917E1,1.4770999E1,7.9698133E0,1.4736919E1,1.1666518E0,8.423216E0,8.799664E0,6.8583015E1,4.1661263E1,1.8305132E1,1.3614875E0,2.9167574E1,1.2693043E1,6.757494E1,1.3745377E1,3.432194E1,8.4971695E1,6.431316E1,3.9301697E1,3.099957E2,3.2229224E2,2.507095E1,3.9463566E1,6.4968414E1,1.940872E2,8.524572E1,2.7276346E1,1.3111458E2],"tree_param":{"num_deleted":"0","num_feature":"1536","num_nodes":"127","size_leaf_vector":"1"}},{"base_weights":[-1.0260248E-3,3.382431E-1,-7.10152E-1,5.94651E-1,-2.0507641E-1,-8.535468E-1,2.6510534E-1,1.8725237E-1,8.349056E-1,4.648817E-1,-4.4825795E-1,-2.944323E-1,-1.0132588E0,-1.613514E-1,7.7308667E-1,-3.4263164E-1,5.5438775E-1,4.2704535E-1,9.9672705E-1,-1.4511342E-1,8.0833733E-1,2.7842748E-1,-6.6677886E-1,-6.393151E-1,4.2406982E-1,-4.3842047E-1,-1.0943193E0,3.7432116E-1,-6.478748E-1,9.271169E-1,-3.9209667E-1,-8.5536706E-1,2.6801705E-1,7.8175414E-1,-1.5971483E-1,6.370468E-1,-3.2082355E-1,6.887575E-1,1.1278315E0,-1.0089498E0,1.7857361E-1,1.873098E-1,1.036081E0,7.479758E-1,-7.9628274E-2,-2.556067E-1,-1.0272739E0,-1.4727856E-1,-1.010457E0,8.798074E-1,-2.1746989E-1,-1.067575E0,-6.1661497E-2,-1.1074785E0,1.0659981E0,8.7012285E-1,-4.0373513E-1,6.213367E-1,-8.603634E-1,-6.077E-2,1.1271237E0,-1.0757259E0,6.646419E-1,-2.3581357E-1,-3.4804817E-2,-4.9978476E-2,1.703832E-1,4.5391355E-2,1.9352186E-1,8.317191E-2,-1.516137E-1,2.7878154E-2,1.795733E-1,-2.318697E-1,8.656705E-3,7.662754E-3,1.6704488E-1,2.3643003E-1,1.488331E-1,-2.3660243E-1,1.08681455E-1,-6.0590625E-2,1.753773E-1,-9.863647E-2,1.4036635E-1,2.3659109E-1,4.496319E-2,2.3519447E-1,4.366518E-2,1.1213076E-1,-1.02608636E-1,-1.2989454E-1,5.2233912E-2,-2.311316E-1,-5.9754945E-2,-9.795879E-2,1.5006538E-1,-2.1153848E-1,1.8028429E-1,2.187277E-1,-7.039159E-2,-1.4588635E-1,1.1802658E-1,-2.3407808E-1,1.3949762E-1,-1.3691604E-1,8.694957E-2,-4.7172694E-3,-2.2527973E-1,3.1890127E-1,-1.4537607E-1,2.2992761E-1,-7.7545695E-2,6.6122204E-2,-2.5288042E-1,2.6893964E-1,-1.2764457E-1,-2.0822735E-1,6.426194E-2,1.5976837E-1,-1.4738162E-1,2.4029386E-1,-2.0345776E-1,1.0283935E-1,-3.0023766E-1,-1.1153562E-1,2.2772555E-1],"categories":[],"categories_nodes":[],"categories_segments":[],"categories_sizes":[],"default_left":[0,0,0,0,0,0,0,0,0,0,0,0,0,0,0,0,0,0,0,0,0,0,0,0,0,0,0,0,0,0,0,0,0,0,0,0,0,0,0,0,0,0,0,0,0,0,0,0,0,0,0,0,0,0,0,0,0,0,0,0,0,0,0,0,0,0,0,0,0,0,0,0,0,0,0,0,0,0,0,0,0,0,0,0,0,0,0,0,0,0,0,0,0,0,0,0,0,0,0,0,0,0,0,0,0,0,0,0,0,0,0,0,0,0,0,0,0,0,0,0,0,0,0,0,0,0,0],"id":5,"left_children":[1,3,5,7,9,11,13,15,17,19,21,23,25,27,29,31,33,35,37,39,41,43,45,47,49,51,53,55,57,59,61,63,65,67,69,71,73,75,77,79,81,83,85,87,89,91,93,95,97,99,101,103,105,107,109,111,113,115,117,119,121,123,125,-1,-1,-1,-1,-1,-1,-1,-1,-1,-1,-1,-1,-1,-1,-1,-1,-1,-1,-1,-1,-1,-1,-1,-1,-1,-1,-1,-1,-1,-1,-1,-1,-1,-1,-1,-1,-1,-1,-1,-1,-1,-1,-1,-1,-1,-1,-1,-1,-1,-1,-1,-1,-1,-1,-1,-1,-1,-1,-1,-1,-1,-1,-1,-1],"loss_changes":[1.1541179E3,4.5215256E2,2.1732349E2,2.1563611E2,1.698214E2,1.205777E2,4.339852E1,1.5954483E2,9.108667E1,5.830613E1,1.21558105E2,7.5147644E1,4.856189E1,2.8759174E1,1.6756145E1,1.0539331E2,7.875098E1,6.2335335E1,3.927368E1,2.8392336E1,2.495948E1,2.988647E1,8.688214E1,3.7207893E1,2.9019808E1,3.1161772E1,2.73833E1,2.0685991E1,1.6097643E1,1.6066895E1,8.926868E0,4.011499E1,4.680269E1,3.767212E1,4.0878456E1,4.000946E1,2.6733414E1,2.8429718E1,1.3587097E1,8.114693E0,2.5231016E1,1.748155E1,1.5212769E1,1.7164482E1,2.8470976E1,5.6343994E1,2.892273E1,2.7769236E1,1.1468674E1,1.5621223E1,1.7694324E1,9.759663E0,2.6104992E1,1.8771362E1,6.929657E0,1.18771E1,1.3816797E1,8.927328E0,1.0983303E1,9.063884E0,1.196579E1,5.699189E0,3.5800261E0,0E0,0E0,0E0,0E0,0E0,0E0,0E0,0E0,0E0,0E0,0E0,0E0,0E0,0E0,0E0,0E0,0E0,0E0,0E0,0E0,0E0,0E0,0E0,0E0,0E0,0E0,0E0,0E0,0E0,0E0,0E0,0E0,0E0,0E0,0E0,0E0,0E0,0E0,0E0,0E0,0E0,0E0,0E0,0E0,0E0,0E0,0E0,0E0,0E0,0E0,0E0,0E0,0E0,0E0,0E0,0E0,0E0,0E0,0E0,0E0,0E0,0E0,0E0,0E0],"parents":[2147483647,0,0,1,1,2,2,3,3,4,4,5,5,6,6,7,7,8,8,9,9,10,10,11,11,12,12,13,13,14,14,15,15,16,16,17,17,18,18,19,19,20,20,21,21,22,22,23,23,24,24,25,25,26,26,27,27,28,28,29,29,30,30,31,31,32,32,33,33,34,34,35,35,36,36,37,37,38,38,39,39,40,40,41,41,42,42,43,43,44,44,45,45,46,46,47,47,48,48,49,49,50,50,51,51,52,52,53,53,54,54,55,55,56,56,57,57,58,58,59,59,60,60,61,61,62,62],"right_children":[2,4,6,8,10,12,14,16,18,20,22,24,26,28,30,32,34,36,38,40,42,44,46,48,50,52,54,56,58,60,62,64,66,68,70,72,74,76,78,80,82,84,86,88,90,92,94,96,98,100,102,104,106,108,110,112,114,116,118,120,122,124,126,-1,-1,-1,-1,-1,-1,-1,-1,-1,-1,-1,-1,-1,-1,-1,-1,-1,-1,-1,-1,-1,-1,-1,-1,-1,-1,-1,-1,-1,-1,-1,-1,-1,-1,-1,-1,-1,-1,-1,-1,-1,-1,-1,-1,-1,-1,-1,-1,-1,-1,-1,-1,-1,-1,-1,-1,-1,-1,-1,-1,-1,-1,-1,-1],"split_conditions":[3.9451244E-1,2.5803858E-1,6.213877E-1,-2.0098236E-1,-5.326138E-1,-3.4586826E-1,3.872989E-1,9.078561E-2,-3.1108925E-1,-4.4101453E-1,-7.450684E-1,2.908128E-1,-4.5614702E-1,-5.268951E-1,1.1763403E0,2.1162853E-1,4.023207E-1,6.2759626E-1,-2.965492E-1,-8.608717E-1,-3.7288558E-1,-1.2910812E-1,8.833629E-2,2.0294614E-1,-1.515575E-3,-3.9491412E-1,1.8053588E0,1.5047856E-1,-9.884457E-1,-6.9716555E-1,-2.9610012E-2,4.8789677E-1,1.302164E-1,-3.3767483E-1,1.7633623E-1,-2.4662992E-1,-2.8628328E-1,-3.818896E-1,6.8623185E-1,1.4310187E0,5.584153E-1,-7.276762E-2,5.7221E-1,-7.189946E-2,-1.1176547E-2,2.8211467E-2,8.9467424E-1,6.0418636E-1,2.0747144E0,8.545299E-1,2.3329587E-1,1.2070581E0,-6.546179E-2,-1.5553913E0,2.1625577E-1,1.2514358E0,3.3396366E-1,3.6316356E-1,1.2466842E0,-3.503001E-1,2.211175E0,-7.818416E-1,-6.419383E-1,-2.3581357E-1,-3.4804817E-2,-4.9978476E-2,1.703832E-1,4.5391355E-2,1.9352186E-1,8.317191E-2,-1.516137E-1,2.7878154E-2,1.795733E-1,-2.318697E-1,8.656705E-3,7.662754E-3,1.6704488E-1,2.3643003E-1,1.488331E-1,-2.3660243E-1,1.08681455E-1,-6.0590625E-2,1.753773E-1,-9.863647E-2,1.4036635E-1,2.3659109E-1,4.496319E-2,2.3519447E-1,4.366518E-2,1.1213076E-1,-1.02608636E-1,-1.2989454E-1,5.2233912E-2,-2.311316E-1,-5.9754945E-2,-9.795879E-2,1.5006538E-1,-2.1153848E-1,1.8028429E-1,2.187277E-1,-7.039159E-2,-1.4588635E-1,1.1802658E-1,-2.3407808E-1,1.3949762E-1,-1.3691604E-1,8.694957E-2,-4.7172694E-3,-2.2527973E-1,3.1890127E-1,-1.4537607E-1,2.2992761E-1,-7.7545695E-2,6.6122204E-2,-2.5288042E-1,2.6893964E-1,-1.2764457E-1,-2.0822735E-1,6.426194E-2,1.5976837E-1,-1.4738162E-1,2.4029386E-1,-2.0345776E-1,1.0283935E-1,-3.0023766E-1,-1.1153562E-1,2.2772555E-1],"split_indices":[1257,126,381,1148,1388,127,797,672,1342,1391,127,1422,1371,798,956,7,896,560,493,1271,668,1159,1060,1346,137,1081,488,1504,1371,174,282,1186,373,1503,357,488,963,672,416,786,777,850,467,454,811,1271,1186,339,244,1425,963,535,105,576,702,1244,875,359,405,1449,714,1164,1052,0,0,0,0,0,0,0,0,0,0,0,0,0,0,0,0,0,0,0,0,0,0,0,0,0,0,0,0,0,0,0,0,0,0,0,0,0,0,0,0,0,0,0,0,0,0,0,0,0,0,0,0,0,0,0,0,0,0,0,0,0,0,0,0],"split_type":[0,0,0,0,0,0,0,0,0,0,0,0,0,0,0,0,0,0,0,0,0,0,0,0,0,0,0,0,0,0,0,0,0,0,0,0,0,0,0,0,0,0,0,0,0,0,0,0,0,0,0,0,0,0,0,0,0,0,0,0,0,0,0,0,0,0,0,0,0,0,0,0,0,0,0,0,0,0,0,0,0,0,0,0,0,0,0,0,0,0,0,0,0,0,0,0,0,0,0,0,0,0,0,0,0,0,0,0,0,0,0,0,0,0,0,0,0,0,0,0,0,0,0,0,0,0,0],"sum_hessian":[4.7951426E3,3.2437495E3,1.5513931E3,2.2036772E3,1.0400723E3,1.3526361E3,1.9875703E2,8.1814026E2,1.385537E3,2.7674265E2,7.633296E2,3.0116635E2,1.0514697E3,1.084197E2,9.033733E1,3.3487878E2,4.832615E2,3.946036E2,9.9093335E2,9.989731E1,1.7684532E2,1.7640971E2,5.869199E2,2.0356491E2,9.7601456E1,1.3074002E2,9.207297E2,5.17131E1,5.67066E1,7.9970085E1,1.0367247E1,1.8181543E2,1.5306334E2,3.6648117E2,1.1678035E2,3.0820724E2,8.6396355E1,2.9775284E2,6.931805E2,2.6652275E1,7.324503E1,4.7940426E1,1.289049E2,7.585099E1,1.00558716E2,2.7498618E2,3.1193372E2,8.8127655E1,1.1543725E2,5.6847015E1,4.075444E1,4.8281155E1,8.245887E1,9.156396E2,5.0900598E0,3.1513432E1,2.0199669E1,7.856286E0,4.8850315E1,1.3581855E1,6.638823E1,6.2840066E0,4.08324E0,1.22761765E2,5.9053677E1,8.141846E1,7.164489E1,9.2520065E1,2.739611E2,5.9678654E1,5.7101696E1,1.06511955E2,2.0169531E2,2.5495981E1,6.0900375E1,5.495689E1,2.4279594E2,6.0538947E2,8.779104E1,2.4179056E1,2.473219E0,4.368671E1,2.9558325E1,2.0658953E1,2.7281471E1,1.0875697E2,2.0147926E1,4.1276344E1,3.4574646E1,4.047362E1,6.0085094E1,1.5590495E2,1.19081215E2,2.6469916E2,4.7234562E1,6.411607E1,2.4011583E1,1.1309E2,2.347253E0,4.8533817E1,8.313199E0,2.500186E1,1.575258E1,4.5941936E1,2.3392186E0,3.6401466E1,4.6057404E1,1.5747583E1,8.99892E2,4.016664E0,1.0733956E0,2.5854229E1,5.659204E0,1.1232036E1,8.967633E0,4.947409E0,2.9088771E0,4.2471863E1,6.378453E0,5.8997273E0,7.6821275E0,6.45887E1,1.7995338E0,1.2825708E0,5.0014358E0,1.0916108E0,2.9916294E0],"tree_param":{"num_deleted":"0","num_feature":"1536","num_nodes":"127","size_leaf_vector":"1"}},{"base_weights":[-1.1178142E-3,-5.745166E-1,3.4499893E-1,2.2523949E-1,-7.823979E-1,-7.6117357E-3,7.0765615E-1,9.909119E-1,-2.329607E-2,-9.0271366E-1,3.5905827E-2,4.451661E-1,-3.7249348E-1,3.236276E-1,9.335264E-1,1.0706924E0,-7.700366E-1,-4.141865E-1,5.4926085E-1,-5.45759E-1,-1.0577562E0,-4.2987284E-1,6.7034197E-1,7.343901E-1,-1.4711932E-2,2.740388E-1,-6.239207E-1,5.9984004E-1,-2.677767E-1,1.0619906E0,6.768852E-1,-1.660088E-1,1.1107556E0,1.3302861E-1,-2.8747332E-1,2.3289014E-1,-7.635388E-1,-3.570638E-1,7.4097914E-1,-8.732072E-1,-1.4220929E-1,-1.1313325E0,-6.6799444E-1,-7.4181557E-1,4.242654E-1,9.9294406E-1,-2.786228E-1,-3.9470285E-2,8.561302E-1,-3.8152334E-1,5.5800384E-1,-4.39703E-1,5.086152E-1,-7.7550083E-1,2.7829385E-1,-1.6130802E-1,7.3777837E-1,-6.480313E-1,2.8598997E-1,1.1005491E0,2.7662182E-1,9.7864234E-1,3.8984594E-1,2.3064366E-1,-1.3055663E-1,-6.4140834E-2,1.716663E-1,-2.6990148E-1,-7.899425E-2,-2.926683E-1,5.0773617E-2,1.808505E-1,-7.673129E-2,-1.9084582E-1,5.804969E-2,-9.171244E-2,1.2131655E-1,2.1297868E-1,-2.2733429E-1,1.0827815E-1,-1.6275288E-1,5.3002525E-2,-1.9233291E-1,2.0987003E-1,-7.33855E-2,8.336267E-2,2.9331335E-1,-1.4258206E-1,1.53782E-1,9.277357E-2,-1.4935072E-1,9.7229235E-2,2.0779239E-1,7.3889464E-2,-1.3682812E-1,1.9198088E-1,1.3436844E-2,4.3900456E-2,-2.0929098E-1,-2.1155048E-2,1.4554566E-1,-1.7981607E-1,8.8496115E-3,1.3495637E-1,-9.174615E-2,1.7561008E-1,-9.7828604E-2,1.6667007E-1,-1.919855E-2,6.2250584E-2,-1.7515156E-1,-9.187638E-2,1.383271E-1,2.2611633E-1,6.57628E-2,-1.8296963E-1,1.3959575E-1,2.1028629E-1,-4.0237363E-2,-2.7017573E-2,1.5406668E-1],"categories":[],"categories_nodes":[],"categories_segments":[],"categories_sizes":[],"default_left":[0,0,0,0,0,0,0,0,0,0,0,0,0,0,0,0,0,0,0,0,0,0,0,0,0,0,0,0,0,0,0,0,0,0,0,0,0,0,0,0,0,0,0,0,0,0,0,0,0,0,0,0,0,0,0,0,0,0,0,0,0,0,0,0,0,0,0,0,0,0,0,0,0,0,0,0,0,0,0,0,0,0,0,0,0,0,0,0,0,0,0,0,0,0,0,0,0,0,0,0,0,0,0,0,0,0,0,0,0,0,0,0,0,0,0,0,0,0,0,0,0],"id":6,"left_children":[1,3,5,7,9,11,13,15,17,19,21,23,25,27,29,31,33,35,37,39,41,43,45,47,49,51,53,55,57,59,61,-1,63,-1,-1,65,67,69,71,73,75,77,79,81,83,85,87,89,91,93,95,97,99,101,103,105,107,109,111,113,115,117,119,-1,-1,-1,-1,-1,-1,-1,-1,-1,-1,-1,-1,-1,-1,-1,-1,-1,-1,-1,-1,-1,-1,-1,-1,-1,-1,-1,-1,-1,-1,-1,-1,-1,-1,-1,-1,-1,-1,-1,-1,-1,-1,-1,-1,-1,-1,-1,-1,-1,-1,-1,-1,-1,-1,-1,-1,-1,-1],"loss_changes":[8.8979144E2,2.8074884E2,3.57524E2,6.642528E1,1.3192944E2,2.3452112E2,1.1925067E2,1.284082E1,5.9403873E1,6.406256E1,5.131795E1,8.42679E1,1.27948235E2,8.3791435E1,2.7875854E1,7.1847687E0,5.0635858E0,3.5827652E1,1.8979408E1,4.6885742E1,2.2565552E1,2.7009052E1,2.2777077E1,3.6673294E1,5.1800117E1,3.7189503E1,7.76568E1,3.6790886E1,3.4651543E1,1.7145569E1,2.4917206E1,0E0,6.8164444E0,0E0,0E0,1.9684626E1,2.1635105E1,1.3537409E1,1.6730774E1,1.8771881E1,3.8310455E1,9.214783E0,2.3637028E1,1.6579468E1,1.3954767E1,1.4415611E1,9.38635E0,1.9506971E1,2.2229797E1,3.4405563E1,1.8927473E1,2.2288486E1,2.2509869E1,4.91799E1,2.432679E1,1.8968359E1,2.3656937E1,2.1538849E1,2.0675398E1,1.2351074E1,1.4847482E1,1.23828125E1,3.0333664E1,0E0,0E0,0E0,0E0,0E0,0E0,0E0,0E0,0E0,0E0,0E0,0E0,0E0,0E0,0E0,0E0,0E0,0E0,0E0,0E0,0E0,0E0,0E0,0E0,0E0,0E0,0E0,0E0,0E0,0E0,0E0,0E0,0E0,0E0,0E0,0E0,0E0,0E0,0E0,0E0,0E0,0E0,0E0,0E0,0E0,0E0,0E0,0E0,0E0,0E0,0E0,0E0,0E0,0E0,0E0,0E0,0E0,0E0],"parents":[2147483647,0,0,1,1,2,2,3,3,4,4,5,5,6,6,7,7,8,8,9,9,10,10,11,11,12,12,13,13,14,14,15,15,16,16,17,17,18,18,19,19,20,20,21,21,22,22,23,23,24,24,25,25,26,26,27,27,28,28,29,29,30,30,32,32,35,35,36,36,37,37,38,38,39,39,40,40,41,41,42,42,43,43,44,44,45,45,46,46,47,47,48,48,49,49,50,50,51,51,52,52,53,53,54,54,55,55,56,56,57,57,58,58,59,59,60,60,61,61,62,62],"right_children":[2,4,6,8,10,12,14,16,18,20,22,24,26,28,30,32,34,36,38,40,42,44,46,48,50,52,54,56,58,60,62,-1,64,-1,-1,66,68,70,72,74,76,78,80,82,84,86,88,90,92,94,96,98,100,102,104,106,108,110,112,114,116,118,120,-1,-1,-1,-1,-1,-1,-1,-1,-1,-1,-1,-1,-1,-1,-1,-1,-1,-1,-1,-1,-1,-1,-1,-1,-1,-1,-1,-1,-1,-1,-1,-1,-1,-1,-1,-1,-1,-1,-1,-1,-1,-1,-1,-1,-1,-1,-1,-1,-1,-1,-1,-1,-1,-1,-1,-1,-1,-1],"split_conditions":[-2.586527E-1,-4.5034564E-1,1.0274469E-1,-1.0437763E0,7.166555E-1,-1.7728087E-1,-1.4661673E-1,1.7159727E0,4.0717977E-1,-7.3124627E-3,3.371659E-1,1.5568426E-1,-6.269495E-1,2.4494937E-1,1.6654563E-1,-1.7505125E0,-2.3508577E-1,-1.17177226E-1,-7.212543E-1,-1.75007E-1,4.346657E-1,3.8365206E-1,4.4056076E-1,-9.4984967E-1,2.5032923E-1,-4.9642444E-1,9.256716E-1,-7.369824E-1,3.1755966E-1,1.2384089E0,-2.8922474E-1,-1.660088E-1,1.7668762E0,1.3302861E-1,-2.8747332E-1,4.2598674E-1,-3.3548626E-1,-4.0910444E-1,1.1972406E0,1.2814081E0,4.179933E-1,-2.296202E0,-1.0359483E0,-8.4718E-1,-2.6583934E-1,3.8521504E-1,5.3479457E-1,1.4889938E-1,-1.5629627E-1,-6.2623155E-1,2.370195E-1,-7.864262E-2,-6.4937586E-1,8.874459E-1,2.7153954E-1,-8.533255E-1,8.6343044E-1,-7.844485E-1,-4.439438E-1,1.2909656E0,-8.1644017E-1,1.7114457E0,1.7533533E-2,2.3064366E-1,-1.3055663E-1,-6.4140834E-2,1.716663E-1,-2.6990148E-1,-7.899425E-2,-2.926683E-1,5.0773617E-2,1.808505E-1,-7.673129E-2,-1.9084582E-1,5.804969E-2,-9.171244E-2,1.2131655E-1,2.1297868E-1,-2.2733429E-1,1.0827815E-1,-1.6275288E-1,5.3002525E-2,-1.9233291E-1,2.0987003E-1,-7.33855E-2,8.336267E-2,2.9331335E-1,-1.4258206E-1,1.53782E-1,9.277357E-2,-1.4935072E-1,9.7229235E-2,2.0779239E-1,7.3889464E-2,-1.3682812E-1,1.9198088E-1,1.3436844E-2,4.3900456E-2,-2.0929098E-1,-2.1155048E-2,1.4554566E-1,-1.7981607E-1,8.8496115E-3,1.3495637E-1,-9.174615E-2,1.7561008E-1,-9.7828604E-2,1.6667007E-1,-1.919855E-2,6.2250584E-2,-1.7515156E-1,-9.187638E-2,1.383271E-1,2.2611633E-1,6.57628E-2,-1.8296963E-1,1.3959575E-1,2.1028629E-1,-4.0237363E-2,-2.7017573E-2,1.5406668E-1],"split_indices":[381,1257,1422,703,222,703,254,261,488,1205,1401,126,1371,181,172,259,1318,808,1199,321,1503,7,961,672,321,500,488,1503,1342,198,573,0,582,0,0,22,963,571,166,1120,1422,1349,127,137,26,476,638,1060,1167,1264,208,840,1503,7,560,806,1346,127,571,181,535,725,332,0,0,0,0,0,0,0,0,0,0,0,0,0,0,0,0,0,0,0,0,0,0,0,0,0,0,0,0,0,0,0,0,0,0,0,0,0,0,0,0,0,0,0,0,0,0,0,0,0,0,0,0,0,0,0,0,0,0],"split_type":[0,0,0,0,0,0,0,0,0,0,0,0,0,0,0,0,0,0,0,0,0,0,0,0,0,0,0,0,0,0,0,0,0,0,0,0,0,0,0,0,0,0,0,0,0,0,0,0,0,0,0,0,0,0,0,0,0,0,0,0,0,0,0,0,0,0,0,0,0,0,0,0,0,0,0,0,0,0,0,0,0,0,0,0,0,0,0,0,0,0,0,0,0,0,0,0,0,0,0,0,0,0,0,0,0,0,0,0,0,0,0,0,0,0,0,0,0,0,0,0,0],"sum_hessian":[4.4814155E3,1.6866106E3,2.7948052E3,3.4794012E2,1.3386704E3,1.4175266E3,1.3772784E3,8.453208E1,2.6340802E2,1.1669847E3,1.7168567E2,6.324751E2,7.850516E2,5.10963E2,8.663154E2,8.12433E1,3.2887824E0,1.5670235E2,1.0670568E2,3.5475403E2,8.122308E2,9.918804E1,7.249762E1,3.879136E2,2.4456146E2,2.19788E2,5.6526355E2,3.482843E2,1.6267873E2,5.7523706E2,2.9107837E2,1.2700337E0,7.997327E1,1.0448895E0,2.243893E0,5.50574E1,1.0164495E2,1.8480227E1,8.822546E1,1.9520059E2,1.5955342E2,6.8165094E2,1.3057979E2,7.27502E1,2.6437843E1,5.407007E1,1.8427553E1,5.2821445E1,3.3509216E2,1.4928296E2,9.52785E1,5.4150547E1,1.6563745E2,4.8407504E2,8.118852E1,5.3407974E1,2.948763E2,9.634876E1,6.632996E1,5.479343E2,2.7302732E1,1.4072661E2,1.5035178E2,7.843088E1,1.5423893E0,2.9464682E1,2.559272E1,3.8219707E1,6.342524E1,6.07832E0,1.2401908E1,7.7211876E1,1.1013581E1,1.8266016E2,1.2540432E1,1.1243781E2,4.7115612E1,1.1717706E0,6.804792E2,1.3754141E1,1.1682565E2,1.3001701E1,5.9748497E1,1.4587025E1,1.1850819E1,2.5243305E1,2.8826763E1,1.3252679E1,5.174874E0,3.1061026E1,2.1760422E1,1.1203453E2,2.2305763E2,4.2814434E1,1.0646852E2,5.1858883E1,4.341962E1,2.6259338E1,2.789121E1,4.3679085E1,1.2195837E2,4.2057532E2,6.3499725E1,5.284474E1,2.834378E1,1.2404088E1,4.1003883E1,2.6455222E2,3.0324108E1,1.8414017E1,7.7934746E1,2.3329552E1,4.3000416E1,5.269622E2,2.0972052E1,6.82696E0,2.0475773E1,1.3265155E2,8.075056E0,6.345374E1,8.689803E1],"tree_param":{"num_deleted":"0","num_feature":"1536","num_nodes":"121","size_leaf_vector":"1"}},{"base_weights":[-8.597474E-4,4.5791972E-1,-3.6848035E-1,1.9946592E-2,6.8745387E-1,1.1271021E-1,-6.646917E-1,3.9210734E-1,-4.5736432E-1,7.9994696E-1,1.0549782E-1,4.1469666E-1,-3.3981168E-1,-1.4579701E-1,-9.011196E-1,6.739748E-1,-1.6515313E-1,3.8676822E-1,-7.1323127E-1,2.4795452E-1,8.857594E-1,-3.3159277E-1,5.813252E-1,6.705984E-1,-1.3384761E-2,6.587135E-1,-5.1725227E-1,-4.3215877E-1,5.58564E-1,-9.684549E-1,-4.8054785E-2,9.1025513E-1,2.2989163E-1,3.943318E-1,-5.4411197E-1,-4.698967E-1,7.167667E-1,-9.311013E-1,-5.77204E-2,7.7912515E-1,-1.5228581E-1,9.59134E-1,4.234507E-1,4.955637E-2,-1.0418806E0,-2.3682594E-1,8.015734E-1,6.697721E-2,8.5480845E-1,-6.0985196E-1,3.520511E-1,2.2736196E-1,1.2313455E0,-7.2092915E-1,8.2405314E-2,-6.302744E-1,4.9256316E-1,1.8607134E-2,9.003729E-1,-1.0238255E0,-2.48148E-1,-7.609699E-1,4.413663E-1,1.9264846E-1,-1.1490271E-1,-3.7279267E-2,1.4566322E-1,1.777808E-1,-3.1652413E-2,9.547277E-2,-1.6808556E-1,-2.0233765E-1,1.0424133E-1,1.813198E-1,-1.1231124E-1,1.1985174E-2,-2.0872426E-1,1.0759997E-1,-1.20437875E-1,2.0000426E-1,-2.8312868E-2,6.305016E-2,-1.4487521E-1,7.352911E-2,2.0081837E-1,1.4368568E-1,-3.1889398E-2,1.160705E-1,-9.251688E-2,-2.7109012E-1,-6.1569978E-3,-2.7884015E-1,7.554661E-2,1.8717234E-1,-1.4081691E-1,1.1924118E-1,-8.096068E-2,1.3272976E-2,1.9725719E-1,-1.8392949E-1,3.4691583E-2,-4.1442346E-2,1.4236169E-1,-6.6431046E-2,2.1650818E-1,2.728738E-1,-8.852928E-2,1.1403966E-2,-1.7315741E-1,1.3209157E-1,-7.607587E-2,4.4137508E-2,-1.6759518E-1,1.7448354E-1,-7.162938E-2,-1.1824031E-1,1.14460245E-1,-3.6942388E-3,2.0979638E-1,1.8071659E-2,-2.0956723E-1,6.319311E-2,-1.6578972E-1,-2.328413E-1,3.469291E-2,-8.710518E-2,1.7366812E-1],"categories":[],"categories_nodes":[],"categories_segments":[],"categories_sizes":[],"default_left":[0,0,0,0,0,0,0,0,0,0,0,0,0,0,0,0,0,0,0,0,0,0,0,0,0,0,0,0,0,0,0,0,0,0,0,0,0,0,0,0,0,0,0,0,0,0,0,0,0,0,0,0,0,0,0,0,0,0,0,0,0,0,0,0,0,0,0,0,0,0,0,0,0,0,0,0,0,0,0,0,0,0,0,0,0,0,0,0,0,0,0,0,0,0,0,0,0,0,0,0,0,0,0,0,0,0,0,0,0,0,0,0,0,0,0,0,0,0,0,0,0,0,0,0,0,0,0],"id":7,"left_children":[1,3,5,7,9,11,13,15,17,19,21,23,25,27,29,31,33,35,37,39,41,43,45,47,49,51,53,55,57,59,61,63,65,67,69,71,73,75,77,79,81,83,85,87,89,91,93,95,97,99,101,103,105,107,109,111,113,115,117,119,121,123,125,-1,-1,-1,-1,-1,-1,-1,-1,-1,-1,-1,-1,-1,-1,-1,-1,-1,-1,-1,-1,-1,-1,-1,-1,-1,-1,-1,-1,-1,-1,-1,-1,-1,-1,-1,-1,-1,-1,-1,-1,-1,-1,-1,-1,-1,-1,-1,-1,-1,-1,-1,-1,-1,-1,-1,-1,-1,-1,-1,-1,-1,-1,-1,-1],"loss_changes":[7.058518E2,1.8714682E2,3.31238E2,1.1408382E2,7.9883545E1,1.2123571E2,1.763164E2,5.6789116E1,6.105134E1,4.8261047E1,4.158581E1,5.8278503E1,6.3277775E1,9.128813E1,5.669818E1,2.4955246E1,2.6083313E1,1.9023365E1,3.0835388E1,2.96893E1,2.9628174E1,2.830767E1,1.7426155E1,3.696187E1,4.3806194E1,1.30678215E1,3.696647E1,5.9206955E1,2.4143913E1,3.6261475E1,2.5919615E1,1.2842224E1,1.7694645E1,1.3764393E1,2.2545364E1,1.07222E1,1.2184977E1,1.815689E1,1.8169746E1,1.2330719E1,2.166885E1,1.9929504E1,2.1274948E1,1.8992344E1,1.1528603E1,1.5506282E1,1.5943172E1,1.9948477E1,2.6368195E1,1.8685436E1,2.522588E1,1.5694023E1,5.7234764E0,2.5480293E1,2.0986673E1,4.705789E1,1.882375E1,1.781717E1,1.0962585E1,2.2830627E1,2.2107168E1,1.1586552E1,1.6893242E1,0E0,0E0,0E0,0E0,0E0,0E0,0E0,0E0,0E0,0E0,0E0,0E0,0E0,0E0,0E0,0E0,0E0,0E0,0E0,0E0,0E0,0E0,0E0,0E0,0E0,0E0,0E0,0E0,0E0,0E0,0E0,0E0,0E0,0E0,0E0,0E0,0E0,0E0,0E0,0E0,0E0,0E0,0E0,0E0,0E0,0E0,0E0,0E0,0E0,0E0,0E0,0E0,0E0,0E0,0E0,0E0,0E0,0E0,0E0,0E0,0E0,0E0,0E0,0E0],"parents":[2147483647,0,0,1,1,2,2,3,3,4,4,5,5,6,6,7,7,8,8,9,9,10,10,11,11,12,12,13,13,14,14,15,15,16,16,17,17,18,18,19,19,20,20,21,21,22,22,23,23,24,24,25,25,26,26,27,27,28,28,29,29,30,30,31,31,32,32,33,33,34,34,35,35,36,36,37,37,38,38,39,39,40,40,41,41,42,42,43,43,44,44,45,45,46,46,47,47,48,48,49,49,50,50,51,51,52,52,53,53,54,54,55,55,56,56,57,57,58,58,59,59,60,60,61,61,62,62],"right_children":[2,4,6,8,10,12,14,16,18,20,22,24,26,28,30,32,34,36,38,40,42,44,46,48,50,52,54,56,58,60,62,64,66,68,70,72,74,76,78,80,82,84,86,88,90,92,94,96,98,100,102,104,106,108,110,112,114,116,118,120,122,124,126,-1,-1,-1,-1,-1,-1,-1,-1,-1,-1,-1,-1,-1,-1,-1,-1,-1,-1,-1,-1,-1,-1,-1,-1,-1,-1,-1,-1,-1,-1,-1,-1,-1,-1,-1,-1,-1,-1,-1,-1,-1,-1,-1,-1,-1,-1,-1,-1,-1,-1,-1,-1,-1,-1,-1,-1,-1,-1,-1,-1,-1,-1,-1,-1],"split_conditions":[-1.4584337E-1,-2.1296966E-1,-2.3053348E-1,-1.7051008E-2,7.391259E-1,3.5325208E-1,-2.2065368E-1,-1.518757E-1,-7.8757745E-1,-7.01003E-1,2.8586315E-2,1.6236196E-1,-1.1526085E0,4.6939114E-1,9.47531E-1,5.163954E-1,-8.585296E-2,-5.294656E-1,5.3334534E-1,-1.5927836E-1,1.0765665E0,2.1121547E-1,-4.3294188E-1,-7.8539133E-1,-2.6255662E-2,5.6515384E-1,1.3107416E-1,7.9259294E-1,-4.61989E-2,1.146817E0,-2.534062E-2,1.248241E0,5.7133627E-1,-1.6754162E-1,-7.74762E-1,9.742771E-2,1.1959885E0,-1.0616772E0,-7.0320666E-2,7.3591846E-1,8.425939E-2,-1.2308283E0,-7.553794E-2,-8.595343E-2,5.616759E-1,-7.472905E-1,1.0445774E0,-1.7782654E-1,-7.120419E-1,6.5811795E-1,4.635737E-2,1.7833956E-1,8.332538E-1,-7.444351E-1,-4.954467E-3,-7.015113E-1,6.905217E-2,1.1941056E-2,-5.691584E-1,-1.3624758E0,9.420536E-2,1.4323922E-1,-4.0939936E-1,1.9264846E-1,-1.1490271E-1,-3.7279267E-2,1.4566322E-1,1.777808E-1,-3.1652413E-2,9.547277E-2,-1.6808556E-1,-2.0233765E-1,1.0424133E-1,1.813198E-1,-1.1231124E-1,1.1985174E-2,-2.0872426E-1,1.0759997E-1,-1.20437875E-1,2.0000426E-1,-2.8312868E-2,6.305016E-2,-1.4487521E-1,7.352911E-2,2.0081837E-1,1.4368568E-1,-3.1889398E-2,1.160705E-1,-9.251688E-2,-2.7109012E-1,-6.1569978E-3,-2.7884015E-1,7.554661E-2,1.8717234E-1,-1.4081691E-1,1.1924118E-1,-8.096068E-2,1.3272976E-2,1.9725719E-1,-1.8392949E-1,3.4691583E-2,-4.1442346E-2,1.4236169E-1,-6.6431046E-2,2.1650818E-1,2.728738E-1,-8.852928E-2,1.1403966E-2,-1.7315741E-1,1.3209157E-1,-7.607587E-2,4.4137508E-2,-1.6759518E-1,1.7448354E-1,-7.162938E-2,-1.1824031E-1,1.14460245E-1,-3.6942388E-3,2.0979638E-1,1.8071659E-2,-2.0956723E-1,6.319311E-2,-1.6578972E-1,-2.328413E-1,3.469291E-2,-8.710518E-2,1.7366812E-1],"split_indices":[1371,1503,127,208,703,126,1205,787,1205,7,254,181,703,1342,672,117,117,1496,7,146,485,1060,991,57,321,194,1342,1503,535,486,1428,181,1403,127,1257,1224,748,787,575,1376,741,1148,642,1205,169,275,685,146,275,275,486,995,1257,16,377,117,172,1186,565,181,377,305,1170,0,0,0,0,0,0,0,0,0,0,0,0,0,0,0,0,0,0,0,0,0,0,0,0,0,0,0,0,0,0,0,0,0,0,0,0,0,0,0,0,0,0,0,0,0,0,0,0,0,0,0,0,0,0,0,0,0,0,0,0,0,0,0,0],"split_type":[0,0,0,0,0,0,0,0,0,0,0,0,0,0,0,0,0,0,0,0,0,0,0,0,0,0,0,0,0,0,0,0,0,0,0,0,0,0,0,0,0,0,0,0,0,0,0,0,0,0,0,0,0,0,0,0,0,0,0,0,0,0,0,0,0,0,0,0,0,0,0,0,0,0,0,0,0,0,0,0,0,0,0,0,0,0,0,0,0,0,0,0,0,0,0,0,0,0,0,0,0,0,0,0,0,0,0,0,0,0,0,0,0,0,0,0,0,0,0,0,0,0,0,0,0,0,0],"sum_hessian":[4.183137E3,1.8607417E3,2.3223953E3,6.4022266E2,1.220519E3,8.85132E2,1.4372633E3,3.5983597E2,2.803867E2,1.02249457E3,1.980245E2,5.3091455E2,3.542175E2,4.503922E2,9.868711E2,2.388261E2,1.2100988E2,6.5100746E1,2.1528593E2,1.3809323E2,8.844013E2,1.0337151E2,9.4652985E1,3.3192648E2,1.9898804E2,5.3038357E1,3.0117914E2,3.2048413E2,1.2990808E2,9.145475E2,7.232358E1,1.5520009E2,8.362601E1,4.8849377E1,7.216051E1,1.7985933E1,4.711481E1,1.6126604E2,5.4019894E1,5.8933815E1,7.9159424E1,7.623341E2,1.22067215E2,6.787772E1,3.5493786E1,2.0060272E1,7.459271E1,7.79296E1,2.5399689E2,7.53433E1,1.2364474E2,3.1047773E1,2.1990583E1,2.2466743E2,7.65117E1,2.6419952E2,5.6284615E1,5.076649E1,7.9141594E1,8.4887244E2,6.567506E1,2.9214071E1,4.3109505E1,1.5019144E2,5.0086503E0,4.590872E1,3.771729E1,2.5456856E1,2.339252E1,1.6088467E1,5.607204E1,1.1615496E1,6.3704376E0,4.1276066E1,5.838747E0,1.6490688E1,1.4477534E2,2.5801529E1,2.8218367E1,4.746066E1,1.1473155E1,4.3807228E1,3.5352196E1,5.449872E1,7.078354E2,8.0896645E1,4.1170574E1,3.3266384E1,3.461134E1,2.683187E1,8.661916E0,6.5175E0,1.3542772E1,6.8832085E1,5.760634E0,3.6604305E1,4.13253E1,3.6516956E1,2.1747992E2,5.3865635E1,2.1477669E1,4.8567646E1,7.5077095E1,1.9137978E1,1.1909795E1,2.0543093E1,1.4474913E0,3.536243E1,1.8930501E2,3.382928E1,4.2682426E1,5.182161E1,2.1237791E2,3.8892864E1,1.739175E1,2.41268E1,2.6639692E1,1.1139869E1,6.8001724E1,1.784895E1,8.310235E2,3.3547447E1,3.212761E1,2.0235815E1,8.978257E0,1.41104145E1,2.899909E1],"tree_param":{"num_deleted":"0","num_feature":"1536","num_nodes":"127","size_leaf_vector":"1"}},{"base_weights":[-6.115811E-4,-4.1391948E-1,3.516985E-1,1.443034E-1,-6.630633E-1,5.838392E-1,-1.5358518E-1,-2.9332232E-1,5.206782E-1,-8.300181E-1,-1.2617841E-1,3.516187E-1,8.988329E-1,-4.0044564E-1,3.6163762E-1,1.0587894E-1,-7.1463954E-1,7.2905207E-1,-6.635013E-2,-9.2472243E-1,-2.3948583E-1,4.2192957E-1,-4.5700637E-1,6.254894E-1,-7.109809E-2,1.0355057E0,5.919827E-1,-6.021747E-1,2.5460446E-1,5.8453643E-1,-2.9005724E-1,7.293373E-1,-2.0276853E-1,-1.04340896E-1,-9.1613877E-1,3.3886838E-1,9.828469E-1,-7.3653585E-1,3.5178664E-1,-4.569263E-2,-9.663527E-1,-4.8123923E-1,4.8320198E-1,-4.3241873E-1,7.048684E-1,5.385469E-1,-6.444278E-1,1.4190243E-1,7.720771E-1,6.836144E-1,-2.755265E-1,1.0508639E0,-2.560842E-1,-1.3136655E-1,7.793617E-1,-1.0854939E-1,-8.107601E-1,7.946554E-1,-1.791265E-1,7.069606E-1,-5.0351644E-1,2.3528922E-1,-9.268809E-1,-3.945877E-2,1.9398825E-1,-1.556947E-1,4.9810983E-2,-1.6023281E-1,1.3033102E-1,5.213846E-2,-2.0644565E-1,1.5451185E-1,-2.2300867E-2,2.1097116E-1,-1.2575845E-2,-2.4914224E-1,-2.0029642E-2,-1.147392E-1,1.2931462E-1,-1.0153695E-1,1.7052822E-1,1.5566828E-2,-1.9803353E-1,-3.8932804E-2,-2.2403629E-1,2.2674875E-1,-1.429031E-2,5.7087846E-2,-1.8556958E-1,-1.481247E-1,1.700982E-1,-1.7553687E-1,1.475326E-1,4.8440155E-2,-1.6823283E-1,-9.755694E-2,8.5089326E-2,2.0696358E-1,1.0631158E-1,1.595729E-1,-1.5901285E-1,2.1390304E-2,-1.3252276E-1,2.1696393E-1,9.138513E-2,-2.3523203E-1,1.7428277E-1,-1.7637248E-1,7.324027E-2,1.8955024E-1,4.40705E-2,-1.0456506E-1,9.383471E-2,-9.776035E-2,-2.1514182E-1,-6.707335E-2,2.0358478E-1,9.58995E-2,-1.19049765E-1,1.6915946E-1,-2.8202698E-2,-1.913971E-1,1.6380967E-1,-1.16949216E-1,1.3221852E-1,-2.5034818E-1,9.9635236E-2],"categories":[],"categories_nodes":[],"categories_segments":[],"categories_sizes":[],"default_left":[0,0,0,0,0,0,0,0,0,0,0,0,0,0,0,0,0,0,0,0,0,0,0,0,0,0,0,0,0,0,0,0,0,0,0,0,0,0,0,0,0,0,0,0,0,0,0,0,0,0,0,0,0,0,0,0,0,0,0,0,0,0,0,0,0,0,0,0,0,0,0,0,0,0,0,0,0,0,0,0,0,0,0,0,0,0,0,0,0,0,0,0,0,0,0,0,0,0,0,0,0,0,0,0,0,0,0,0,0,0,0,0,0,0,0,0,0,0,0,0,0,0,0,0,0,0,0],"id":8,"left_children":[1,3,5,7,9,11,13,15,17,19,21,23,25,27,29,31,33,35,37,39,41,43,45,47,49,51,53,55,57,59,61,63,65,67,69,71,73,75,77,79,81,83,85,87,89,91,93,95,97,99,101,103,105,107,109,111,113,115,117,119,121,123,125,-1,-1,-1,-1,-1,-1,-1,-1,-1,-1,-1,-1,-1,-1,-1,-1,-1,-1,-1,-1,-1,-1,-1,-1,-1,-1,-1,-1,-1,-1,-1,-1,-1,-1,-1,-1,-1,-1,-1,-1,-1,-1,-1,-1,-1,-1,-1,-1,-1,-1,-1,-1,-1,-1,-1,-1,-1,-1,-1,-1,-1,-1,-1,-1],"loss_changes":[5.6982996E2,2.5054333E2,2.4788602E2,9.181769E1,1.11514465E2,1.0558267E2,8.482961E1,4.346222E1,3.6690712E1,5.2891113E1,5.396806E1,9.671261E1,2.5125702E1,5.969924E1,3.1575846E1,2.580403E1,1.5354095E1,2.1568176E1,2.250725E1,2.989325E1,2.3400015E1,2.7413252E1,3.494357E1,3.581749E1,5.0977062E1,8.665375E0,2.6052574E1,3.5415443E1,2.5159111E1,2.1859661E1,1.8876173E1,1.0082886E1,2.359443E1,1.7544085E1,1.3154968E1,1.7408993E1,1.0117355E1,9.863926E0,1.3893663E1,1.622116E1,1.9499573E1,1.8067785E1,1.2254644E1,1.0407738E1,1.8443104E1,9.084917E0,2.750164E1,2.1475279E1,2.4013367E1,1.253603E1,3.8525818E1,7.944336E0,7.018973E0,1.5352217E1,1.4118851E1,2.5035667E1,2.0137695E1,1.2389666E1,1.6742407E1,1.7251701E1,1.0926079E1,1.133576E1,1.2388269E1,0E0,0E0,0E0,0E0,0E0,0E0,0E0,0E0,0E0,0E0,0E0,0E0,0E0,0E0,0E0,0E0,0E0,0E0,0E0,0E0,0E0,0E0,0E0,0E0,0E0,0E0,0E0,0E0,0E0,0E0,0E0,0E0,0E0,0E0,0E0,0E0,0E0,0E0,0E0,0E0,0E0,0E0,0E0,0E0,0E0,0E0,0E0,0E0,0E0,0E0,0E0,0E0,0E0,0E0,0E0,0E0,0E0,0E0,0E0,0E0,0E0,0E0,0E0,0E0],"parents":[2147483647,0,0,1,1,2,2,3,3,4,4,5,5,6,6,7,7,8,8,9,9,10,10,11,11,12,12,13,13,14,14,15,15,16,16,17,17,18,18,19,19,20,20,21,21,22,22,23,23,24,24,25,25,26,26,27,27,28,28,29,29,30,30,31,31,32,32,33,33,34,34,35,35,36,36,37,37,38,38,39,39,40,40,41,41,42,42,43,43,44,44,45,45,46,46,47,47,48,48,49,49,50,50,51,51,52,52,53,53,54,54,55,55,56,56,57,57,58,58,59,59,60,60,61,61,62,62],"right_children":[2,4,6,8,10,12,14,16,18,20,22,24,26,28,30,32,34,36,38,40,42,44,46,48,50,52,54,56,58,60,62,64,66,68,70,72,74,76,78,80,82,84,86,88,90,92,94,96,98,100,102,104,106,108,110,112,114,116,118,120,122,124,126,-1,-1,-1,-1,-1,-1,-1,-1,-1,-1,-1,-1,-1,-1,-1,-1,-1,-1,-1,-1,-1,-1,-1,-1,-1,-1,-1,-1,-1,-1,-1,-1,-1,-1,-1,-1,-1,-1,-1,-1,-1,-1,-1,-1,-1,-1,-1,-1,-1,-1,-1,-1,-1,-1,-1,-1,-1,-1,-1,-1,-1,-1,-1,-1],"split_conditions":[-4.7046408E-2,-3.498362E-1,4.0022632E-1,1.12495646E-1,3.517509E-1,3.4288728E-1,5.0303173E-1,2.1342441E-2,3.8938245E-1,5.9096545E-1,-2.5078177E-1,1.5638988E-1,1.14250824E-1,6.276034E-1,3.4944513E-1,-6.880444E-1,-6.647184E-1,-5.10135E-2,-1.9450676E-1,-1.398382E0,6.7694265E-1,-5.9616715E-1,-6.4848423E-1,-4.6498537E-1,-8.544713E-1,2.0129533E0,-6.977808E-1,-1.967543E-1,-3.515635E-1,1.1090796E0,3.943631E-1,-8.2169485E-1,-1.3441855E-1,-1.7086498E-1,-1.0885537E0,-4.5034564E-1,9.6600896E-1,9.048322E-2,-6.0618293E-1,3.7278825E-1,-1.2559261E0,6.0291314E-1,-4.1911373E-1,-2.3687895E-2,-1.0901968E0,-1.4798186E0,-8.9033264E-1,-3.5616928E-1,-3.117038E-1,1.0228909E0,-1.4561908E-2,1.2810527E0,2.8092979E-2,-9.289471E-2,6.2231094E-1,2.163401E-1,1.0122865E-1,-8.818933E-1,-1.0630728E-1,7.2358495E-1,9.953908E-1,-4.286623E-2,7.121024E-1,-3.945877E-2,1.9398825E-1,-1.556947E-1,4.9810983E-2,-1.6023281E-1,1.3033102E-1,5.213846E-2,-2.0644565E-1,1.5451185E-1,-2.2300867E-2,2.1097116E-1,-1.2575845E-2,-2.4914224E-1,-2.0029642E-2,-1.147392E-1,1.2931462E-1,-1.0153695E-1,1.7052822E-1,1.5566828E-2,-1.9803353E-1,-3.8932804E-2,-2.2403629E-1,2.2674875E-1,-1.429031E-2,5.7087846E-2,-1.8556958E-1,-1.481247E-1,1.700982E-1,-1.7553687E-1,1.475326E-1,4.8440155E-2,-1.6823283E-1,-9.755694E-2,8.5089326E-2,2.0696358E-1,1.0631158E-1,1.595729E-1,-1.5901285E-1,2.1390304E-2,-1.3252276E-1,2.1696393E-1,9.138513E-2,-2.3523203E-1,1.7428277E-1,-1.7637248E-1,7.324027E-2,1.8955024E-1,4.40705E-2,-1.0456506E-1,9.383471E-2,-9.776035E-2,-2.1514182E-1,-6.707335E-2,2.0358478E-1,9.58995E-2,-1.19049765E-1,1.6915946E-1,-2.8202698E-2,-1.913971E-1,1.6380967E-1,-1.16949216E-1,1.3221852E-1,-2.5034818E-1,9.9635236E-2],"split_indices":[321,1205,181,1391,222,1391,222,896,79,777,801,900,556,254,137,21,231,275,10,172,393,7,181,991,560,925,254,703,575,446,691,106,1081,621,528,1257,126,1342,1342,1081,1257,446,528,1293,488,321,1060,1271,811,463,691,551,1196,672,751,935,1312,1126,718,1371,1423,1433,235,0,0,0,0,0,0,0,0,0,0,0,0,0,0,0,0,0,0,0,0,0,0,0,0,0,0,0,0,0,0,0,0,0,0,0,0,0,0,0,0,0,0,0,0,0,0,0,0,0,0,0,0,0,0,0,0,0,0,0,0,0,0,0,0],"split_type":[0,0,0,0,0,0,0,0,0,0,0,0,0,0,0,0,0,0,0,0,0,0,0,0,0,0,0,0,0,0,0,0,0,0,0,0,0,0,0,0,0,0,0,0,0,0,0,0,0,0,0,0,0,0,0,0,0,0,0,0,0,0,0,0,0,0,0,0,0,0,0,0,0,0,0,0,0,0,0,0,0,0,0,0,0,0,0,0,0,0,0,0,0,0,0,0,0,0,0,0,0,0,0,0,0,0,0,0,0,0,0,0,0,0,0,0,0,0,0,0,0,0,0,0,0,0,0],"sum_hessian":[3.9113306E3,1.7997743E3,2.1115562E3,5.555189E2,1.2442554E3,1.4467332E3,6.64823E2,2.56961E2,2.9855795E2,9.4869434E2,2.9556094E2,8.3400336E2,6.1272986E2,4.4961853E2,2.1520448E2,1.3232796E2,1.2463305E2,2.2016528E2,7.8392654E1,8.170907E2,1.3160364E2,1.1114431E2,1.8441664E2,5.0581506E2,3.281883E2,4.222727E2,1.9045712E2,3.4381735E2,1.05801186E2,1.604343E2,5.477019E1,4.336632E1,8.896164E1,3.1312351E1,9.3320694E1,8.7688446E1,1.3247684E2,2.9826134E1,4.856652E1,3.7041946E1,7.8004877E2,9.8865326E1,3.2738316E1,2.7519487E1,8.362482E1,2.8920736E1,1.5549591E2,1.1811763E2,3.8769742E2,6.944947E1,2.5873883E2,4.1749466E2,4.778046E0,3.924736E1,1.5120976E2,1.0257949E2,2.4123787E2,4.6754128E1,5.9047054E1,1.4452325E2,1.59110365E1,3.035742E1,2.441277E1,8.976271E0,3.439005E1,3.8800198E1,5.016144E1,1.6262756E1,1.5049594E1,8.267287E0,8.5053406E1,4.4307106E1,4.338134E1,1.2393399E2,8.542851E0,1.6037231E1,1.3788902E1,1.150389E1,3.706263E1,2.474898E1,1.2292967E1,1.7343414E1,7.627054E2,6.915357E1,2.9711754E1,1.4586293E1,1.8152021E1,1.1410281E1,1.6109207E1,7.279592E0,7.634523E1,3.1448438E0,2.5775892E1,2.8195704E1,1.2730021E2,3.645005E1,8.166758E1,1.8371092E2,2.0398651E2,6.489572E1,4.5537477E0,1.3050829E2,1.2823055E2,3.9413525E2,2.3359426E1,2.6072688E0,2.170777E0,1.5338906E1,2.3908455E1,1.15670975E2,3.5538788E1,5.979586E1,4.278363E1,1.1018687E2,1.31051E2,7.6307516E0,3.9123375E1,2.2802984E1,3.6244072E1,1.24192154E2,2.0331106E1,1.2054362E1,3.8566737E0,1.0247995E1,2.0109425E1,1.9979752E1,4.4330177E0],"tree_param":{"num_deleted":"0","num_feature":"1536","num_nodes":"127","size_leaf_vector":"1"}},{"base_weights":[-3.3283836E-4,3.2056937E-1,-3.7728363E-1,4.6679834E-1,-3.6979347E-1,1.7910288E-1,-5.9428465E-1,1.698739E-1,7.244363E-1,4.0376884E-1,-6.2178594E-1,5.260466E-1,-1.6643831E-1,-7.369351E-1,8.736322E-2,-3.341297E-1,4.5613497E-1,4.0036234E-1,8.942247E-1,-4.554151E-1,6.601911E-1,-8.342275E-1,2.7486804E-1,6.7652136E-1,-1.414614E-1,-4.4285607E-1,3.7735802E-1,-8.498263E-1,-1.8981652E-1,-2.7289343E-1,5.403602E-1,-6.578465E-1,1.637838E-1,7.420565E-1,7.406698E-2,8.418279E-1,1.1548662E-1,9.7588116E-1,4.454268E-1,-8.076776E-1,6.6441375E-1,-4.7453E-1,8.282399E-1,1.0365954E-1,-9.72011E-1,-3.340686E-1,8.218065E-1,8.1678903E-1,-3.2556627E-2,-6.276297E-1,4.5926145E-1,3.34353E-2,-7.694445E-1,7.201545E-1,-2.1107449E-1,3.108765E-1,-8.839499E-1,-5.417216E-1,3.689185E-1,1.636966E-1,-6.86108E-1,-5.825506E-1,7.2624594E-1,-1.7812729E-1,-2.6505819E-2,-1.838636E-1,6.761178E-2,1.7761377E-1,3.6771026E-2,-4.8579186E-2,1.10006414E-1,-1.04052864E-1,1.8164532E-1,-1.4162457E-1,6.5178156E-2,1.4005066E-1,2.1456733E-1,1.4168255E-1,-6.9475204E-2,-2.3083916E-1,8.7704174E-2,2.1473995E-1,-1.09171204E-1,5.938027E-2,-2.5614223E-1,2.1799807E-1,1.5082805E-2,1.4203186E-1,-1.3665925E-1,1.1772646E-1,-2.0236643E-1,6.6941224E-2,-2.176894E-1,-1.7464417E-1,2.1661459E-1,1.8142377E-1,1.4514885E-2,1.1355408E-1,-1.3885608E-1,-2.3156534E-1,2.7744034E-2,-1.1574067E-1,1.9255252E-1,1.367656E-1,-7.35231E-2,4.4556703E-2,-1.8544973E-1,1.8191831E-1,-6.435968E-2,-3.0077052E-1,3.60098E-2,-1.5703101E-1,1.4051154E-1,-1.8523796E-1,-8.263554E-3,-1.4965343E-1,8.648106E-2,1.2916748E-1,-1.0087694E-1,-7.390943E-2,1.3213716E-1,-1.0468258E-2,-2.0530513E-1,-2.000581E-1,1.4420258E-1,-5.8458425E-2,1.6874741E-1],"categories":[],"categories_nodes":[],"categories_segments":[],"categories_sizes":[],"default_left":[0,0,0,0,0,0,0,0,0,0,0,0,0,0,0,0,0,0,0,0,0,0,0,0,0,0,0,0,0,0,0,0,0,0,0,0,0,0,0,0,0,0,0,0,0,0,0,0,0,0,0,0,0,0,0,0,0,0,0,0,0,0,0,0,0,0,0,0,0,0,0,0,0,0,0,0,0,0,0,0,0,0,0,0,0,0,0,0,0,0,0,0,0,0,0,0,0,0,0,0,0,0,0,0,0,0,0,0,0,0,0,0,0,0,0,0,0,0,0,0,0,0,0,0,0,0,0],"id":9,"left_children":[1,3,5,7,9,11,13,15,17,19,21,23,25,27,29,31,33,35,37,39,41,43,45,47,49,51,53,55,57,59,61,63,65,67,69,71,73,75,77,79,81,83,85,87,89,91,93,95,97,99,101,103,105,107,109,111,113,115,117,119,121,123,125,-1,-1,-1,-1,-1,-1,-1,-1,-1,-1,-1,-1,-1,-1,-1,-1,-1,-1,-1,-1,-1,-1,-1,-1,-1,-1,-1,-1,-1,-1,-1,-1,-1,-1,-1,-1,-1,-1,-1,-1,-1,-1,-1,-1,-1,-1,-1,-1,-1,-1,-1,-1,-1,-1,-1,-1,-1,-1,-1,-1,-1,-1,-1,-1],"loss_changes":[4.4366464E2,2.001722E2,2.0373772E2,1.2497635E2,6.786249E1,5.6911865E1,1.1806967E2,1.09952034E2,4.7802948E1,1.9210445E1,5.0139717E1,2.3876488E1,3.5977848E1,6.183014E1,3.4567333E1,4.463462E1,5.30129E1,3.797455E1,2.0584198E1,8.552366E0,1.3075916E1,2.7506287E1,1.7240108E1,1.9260086E1,1.3249767E1,2.4666636E1,1.6455982E1,3.3216553E1,3.420747E1,2.1426561E1,1.9995121E1,2.037864E1,2.1006453E1,2.2473923E1,3.1670504E1,1.1196327E1,3.2316322E1,1.2194061E1,1.9037718E1,7.3761024E0,3.266468E0,6.111326E0,1.14051285E1,1.3882051E1,1.2093124E1,1.2883593E1,1.2958212E1,1.0789635E1,1.3462794E1,1.0298915E1,1.1233721E1,1.730907E1,1.4927242E1,1.0418676E1,1.5706312E1,1.10663185E1,2.872821E1,2.1756907E1,1.6633335E1,1.5682859E1,1.3083174E1,8.275379E0,9.92709E0,0E0,0E0,0E0,0E0,0E0,0E0,0E0,0E0,0E0,0E0,0E0,0E0,0E0,0E0,0E0,0E0,0E0,0E0,0E0,0E0,0E0,0E0,0E0,0E0,0E0,0E0,0E0,0E0,0E0,0E0,0E0,0E0,0E0,0E0,0E0,0E0,0E0,0E0,0E0,0E0,0E0,0E0,0E0,0E0,0E0,0E0,0E0,0E0,0E0,0E0,0E0,0E0,0E0,0E0,0E0,0E0,0E0,0E0,0E0,0E0,0E0,0E0,0E0,0E0],"parents":[2147483647,0,0,1,1,2,2,3,3,4,4,5,5,6,6,7,7,8,8,9,9,10,10,11,11,12,12,13,13,14,14,15,15,16,16,17,17,18,18,19,19,20,20,21,21,22,22,23,23,24,24,25,25,26,26,27,27,28,28,29,29,30,30,31,31,32,32,33,33,34,34,35,35,36,36,37,37,38,38,39,39,40,40,41,41,42,42,43,43,44,44,45,45,46,46,47,47,48,48,49,49,50,50,51,51,52,52,53,53,54,54,55,55,56,56,57,57,58,58,59,59,60,60,61,61,62,62],"right_children":[2,4,6,8,10,12,14,16,18,20,22,24,26,28,30,32,34,36,38,40,42,44,46,48,50,52,54,56,58,60,62,64,66,68,70,72,74,76,78,80,82,84,86,88,90,92,94,96,98,100,102,104,106,108,110,112,114,116,118,120,122,124,126,-1,-1,-1,-1,-1,-1,-1,-1,-1,-1,-1,-1,-1,-1,-1,-1,-1,-1,-1,-1,-1,-1,-1,-1,-1,-1,-1,-1,-1,-1,-1,-1,-1,-1,-1,-1,-1,-1,-1,-1,-1,-1,-1,-1,-1,-1,-1,-1,-1,-1,-1,-1,-1,-1,-1,-1,-1,-1,-1,-1,-1,-1,-1,-1],"split_conditions":[6.380704E-2,7.538219E-1,-4.5034564E-1,6.1850652E-2,-5.7236993E-1,-2.5740016E-2,6.0957265E-1,-8.144231E-2,-1.4735164E-1,-3.8481808E-1,6.834677E-1,8.849871E-1,4.4907787E-1,5.9134376E-1,2.392248E-1,2.3589313E-1,1.3910653E-2,-3.609819E-1,8.5254985E-1,6.3358134E-1,-8.3120126E-1,-7.743462E-1,1.517673E-1,6.528056E-1,3.284945E-1,-4.0366703E-1,4.574283E-1,-1.444107E0,6.67706E-2,-1.332059E-1,-8.310695E-1,3.992411E-1,-1.2702117E0,6.922014E-1,2.4425109E-1,-1.0048227E0,-5.4821855E-1,-2.8403866E-1,5.4486805E-1,9.52081E-1,1.2571433E0,-4.1660362E-1,4.2901006E-1,-1.8662593E-1,-1.8507103E0,-1.9768439E-1,-1.1649518E0,1.0548337E0,6.283808E-2,2.1832162E-1,-7.722921E-1,-2.694355E-1,-1.1605291E0,4.445927E-1,-8.048982E-1,-7.4389625E-1,1.3326023E0,6.4036566E-1,4.8642063E-1,-5.253744E-2,-3.9882743E-1,5.521002E-1,-8.7492365E-1,-1.7812729E-1,-2.6505819E-2,-1.838636E-1,6.761178E-2,1.7761377E-1,3.6771026E-2,-4.8579186E-2,1.10006414E-1,-1.04052864E-1,1.8164532E-1,-1.4162457E-1,6.5178156E-2,1.4005066E-1,2.1456733E-1,1.4168255E-1,-6.9475204E-2,-2.3083916E-1,8.7704174E-2,2.1473995E-1,-1.09171204E-1,5.938027E-2,-2.5614223E-1,2.1799807E-1,1.5082805E-2,1.4203186E-1,-1.3665925E-1,1.1772646E-1,-2.0236643E-1,6.6941224E-2,-2.176894E-1,-1.7464417E-1,2.1661459E-1,1.8142377E-1,1.4514885E-2,1.1355408E-1,-1.3885608E-1,-2.3156534E-1,2.7744034E-2,-1.1574067E-1,1.9255252E-1,1.367656E-1,-7.35231E-2,4.4556703E-2,-1.8544973E-1,1.8191831E-1,-6.435968E-2,-3.0077052E-1,3.60098E-2,-1.5703101E-1,1.4051154E-1,-1.8523796E-1,-8.263554E-3,-1.4965343E-1,8.648106E-2,1.2916748E-1,-1.0087694E-1,-7.390943E-2,1.3213716E-1,-1.0468258E-2,-2.0530513E-1,-2.000581E-1,1.4420258E-1,-5.8458425E-2,1.6874741E-1],"split_indices":[741,1312,1257,1186,642,745,381,7,1391,621,321,715,991,321,797,194,1388,26,172,381,1148,1060,1422,652,194,703,1162,181,1081,802,850,571,1167,703,656,174,1120,1041,181,978,583,853,1462,446,79,127,505,137,611,128,161,1371,1318,1312,1148,1088,1287,7,467,7,594,559,1271,0,0,0,0,0,0,0,0,0,0,0,0,0,0,0,0,0,0,0,0,0,0,0,0,0,0,0,0,0,0,0,0,0,0,0,0,0,0,0,0,0,0,0,0,0,0,0,0,0,0,0,0,0,0,0,0,0,0,0,0,0,0,0,0],"split_type":[0,0,0,0,0,0,0,0,0,0,0,0,0,0,0,0,0,0,0,0,0,0,0,0,0,0,0,0,0,0,0,0,0,0,0,0,0,0,0,0,0,0,0,0,0,0,0,0,0,0,0,0,0,0,0,0,0,0,0,0,0,0,0,0,0,0,0,0,0,0,0,0,0,0,0,0,0,0,0,0,0,0,0,0,0,0,0,0,0,0,0,0,0,0,0,0,0,0,0,0,0,0,0,0,0,0,0,0,0,0,0,0,0,0,0,0,0,0,0,0,0,0,0,0,0,0,0],"sum_hessian":[3.6657307E3,1.9801542E3,1.6855767E3,1.6343077E3,3.458465E2,4.7299664E2,1.21258E3,7.600356E2,8.742721E2,8.4831085E1,2.6101538E2,2.3575867E2,2.3723798E2,1.00266766E3,2.0991232E2,2.7525052E2,4.847851E2,3.0172668E2,5.725454E2,1.9320068E1,6.551102E1,2.1107552E2,4.9939877E1,1.9237787E2,4.3380806E1,1.5741022E2,7.982775E1,8.30708E2,1.7195967E2,1.1714642E2,9.27659E1,1.6660901E2,1.086415E2,2.767422E2,2.080429E2,1.1757235E2,1.8415433E2,4.8341595E2,8.912945E1,1.4908939E1,4.4111285E0,8.215239E0,5.729578E1,2.7068567E1,1.8400696E2,2.3814777E1,2.6125097E1,1.6048024E2,3.1897621E1,2.395174E1,1.9429066E1,6.439509E1,9.301514E1,5.030076E1,2.9526997E1,2.3492952E1,8.07215E2,1.05526764E2,6.64329E1,5.7255665E1,5.9890755E1,1.2872279E1,7.989362E1,1.1496695E2,5.1642056E1,1.4465404E1,9.41761E1,2.1889378E2,5.7848408E1,1.25174324E2,8.2868576E1,5.147235E0,1.1242512E2,3.699092E1,1.471634E2,1.2793656E2,3.554794E2,6.700816E1,2.2121283E1,1.1723052E1,3.1858873E0,3.380696E0,1.0304327E0,4.520914E0,3.6943247E0,4.2181725E1,1.5114056E1,1.5342119E1,1.1726448E1,4.2353544E0,1.7977159E2,1.2918515E1,1.0896262E1,3.1762385E0,2.2948858E1,1.4291492E2,1.7565334E1,1.6799139E1,1.5098482E1,1.3855216E1,1.0096524E1,6.2974825E0,1.3131582E1,2.4293194E1,4.010189E1,1.2706768E1,8.0308365E1,4.266998E1,7.6307774E0,6.197496E0,2.3329502E1,5.920682E0,1.757227E1,7.6858777E2,3.8627304E1,8.7257324E1,1.8269442E1,5.063677E1,1.5796133E1,2.7744102E1,2.9511562E1,2.1331312E1,3.8559444E1,9.924518E0,2.9477613E0,8.108936E0,7.178468E1],"tree_param":{"num_deleted":"0","num_feature":"1536","num_nodes":"127","size_leaf_vector":"1"}},{"base_weights":[-1.3974367E-4,-5.6473356E-1,1.8502343E-1,-2.1936536E-1,-8.3900744E-1,4.713325E-1,-1.2349053E-1,-3.7791628E-1,6.741009E-1,-9.13016E-1,-1.5361184E-1,6.437265E-1,5.064874E-2,-4.4355386E-1,2.0535E-1,2.2050628E-1,-5.8469796E-1,1.089174E0,-2.7631363E-3,-9.5877224E-1,-7.163744E-2,-7.142692E-1,3.9090148E-1,2.3866156E-1,7.9365766E-1,-1.5197639E-1,6.354784E-1,-7.3634416E-1,-1.6076952E-1,6.863782E-1,-1.6788434E-2,-2.2444612E-1,7.3387116E-1,-8.034685E-3,-7.668081E-1,-1.5441512E-1,1.1670026E0,-5.857274E-1,1.1754253E0,-9.914935E-1,9.537229E-3,-6.4088583E-1,8.6937207E-1,3.7548688E-1,-9.9097383E-1,7.280536E-1,-8.4939754E-1,-1.8187119E-1,6.134049E-1,8.903303E-1,3.5527387E-1,2.477943E-1,-4.8538473E-1,-1.9659732E-1,8.2210463E-1,-4.952005E-2,-8.700814E-1,1.5323122E-1,-5.872465E-1,-1.464944E-1,8.387146E-1,2.0313995E-1,-5.1091063E-1,1.6551945E-1,-9.990929E-2,2.076915E-1,-5.273841E-2,6.996848E-2,-1.6170822E-1,7.9421096E-2,-1.656601E-1,2.481514E-1,-9.091636E-2,9.355347E-3,-3.047038E-1,2.4961565E-1,7.071109E-2,-1.01437606E-1,-2.0919023E-1,1.5002717E-1,-1.703872E-1,8.6125E-2,-2.136529E-1,-8.315418E-2,2.307324E-1,-1.333885E-1,2.5720888E-1,-2.15957E-1,6.064851E-2,-3.66898E-2,2.3127209E-1,1.4494427E-2,-2.1190427E-1,-1.173069E-1,5.5988904E-2,1.5918325E-1,-3.3009823E-2,7.483776E-2,1.8981329E-1,-5.6201976E-2,1.1117106E-1,-7.158198E-2,9.6317485E-2,-2.3240007E-3,-1.6301629E-1,-1.8927108E-1,1.11236416E-1,1.7944147E-1,-1.0817397E-1,-7.525596E-2,2.0455788E-1,-7.344374E-2,-2.01243E-1,1.6879855E-1,-1.3437033E-2,7.066982E-2,-1.4440133E-1,-1.2638453E-1,1.2910755E-1,2.0612116E-1,9.2177175E-2,7.970546E-2,-5.8232177E-2,-1.7828536E-1,-2.233436E-2],"categories":[],"categories_nodes":[],"categories_segments":[],"categories_sizes":[],"default_left":[0,0,0,0,0,0,0,0,0,0,0,0,0,0,0,0,0,0,0,0,0,0,0,0,0,0,0,0,0,0,0,0,0,0,0,0,0,0,0,0,0,0,0,0,0,0,0,0,0,0,0,0,0,0,0,0,0,0,0,0,0,0,0,0,0,0,0,0,0,0,0,0,0,0,0,0,0,0,0,0,0,0,0,0,0,0,0,0,0,0,0,0,0,0,0,0,0,0,0,0,0,0,0,0,0,0,0,0,0,0,0,0,0,0,0,0,0,0,0,0,0,0,0,0,0],"id":10,"left_children":[1,3,5,7,9,11,13,15,17,19,21,23,25,27,29,31,33,35,37,39,41,43,45,47,49,51,53,55,57,59,61,63,65,67,69,-1,71,73,75,77,79,81,83,85,87,89,91,93,95,97,99,101,103,105,107,109,111,113,115,117,119,121,123,-1,-1,-1,-1,-1,-1,-1,-1,-1,-1,-1,-1,-1,-1,-1,-1,-1,-1,-1,-1,-1,-1,-1,-1,-1,-1,-1,-1,-1,-1,-1,-1,-1,-1,-1,-1,-1,-1,-1,-1,-1,-1,-1,-1,-1,-1,-1,-1,-1,-1,-1,-1,-1,-1,-1,-1,-1,-1,-1,-1,-1,-1],"loss_changes":[3.59872E2,8.034604E1,2.2903053E2,5.3753265E1,2.3877472E1,9.748996E1,1.3149774E2,3.989722E1,1.6094614E1,1.637555E1,1.4733411E1,5.7733276E1,4.6544334E1,5.229354E1,6.58876E1,1.9182806E1,2.5105347E1,6.0444336E0,1.6327566E1,1.2842499E1,1.293733E1,7.5129213E0,1.0932713E1,4.0940838E1,2.916571E1,3.9027973E1,1.5853527E1,2.8498611E1,4.3383354E1,2.4836365E1,4.604108E1,1.3543348E1,1.2090784E1,1.7013714E1,1.3334915E1,0E0,4.687744E0,9.502441E0,2.863884E-2,9.802887E0,9.717818E0,7.3181458E0,3.8173876E0,6.097807E0,2.52977E0,7.993661E0,1.1873689E0,2.3123127E1,1.9628323E1,1.6904083E1,1.6410048E1,1.9063908E1,2.4904762E1,1.1430341E1,8.953892E0,1.850122E1,1.7430923E1,2.8527302E1,1.7658493E1,1.2314881E1,1.147435E1,2.8436733E1,1.9722836E1,0E0,0E0,0E0,0E0,0E0,0E0,0E0,0E0,0E0,0E0,0E0,0E0,0E0,0E0,0E0,0E0,0E0,0E0,0E0,0E0,0E0,0E0,0E0,0E0,0E0,0E0,0E0,0E0,0E0,0E0,0E0,0E0,0E0,0E0,0E0,0E0,0E0,0E0,0E0,0E0,0E0,0E0,0E0,0E0,0E0,0E0,0E0,0E0,0E0,0E0,0E0,0E0,0E0,0E0,0E0,0E0,0E0,0E0,0E0,0E0,0E0,0E0],"parents":[2147483647,0,0,1,1,2,2,3,3,4,4,5,5,6,6,7,7,8,8,9,9,10,10,11,11,12,12,13,13,14,14,15,15,16,16,17,17,18,18,19,19,20,20,21,21,22,22,23,23,24,24,25,25,26,26,27,27,28,28,29,29,30,30,31,31,32,32,33,33,34,34,36,36,37,37,38,38,39,39,40,40,41,41,42,42,43,43,44,44,45,45,46,46,47,47,48,48,49,49,50,50,51,51,52,52,53,53,54,54,55,55,56,56,57,57,58,58,59,59,60,60,61,61,62,62],"right_children":[2,4,6,8,10,12,14,16,18,20,22,24,26,28,30,32,34,36,38,40,42,44,46,48,50,52,54,56,58,60,62,64,66,68,70,-1,72,74,76,78,80,82,84,86,88,90,92,94,96,98,100,102,104,106,108,110,112,114,116,118,120,122,124,-1,-1,-1,-1,-1,-1,-1,-1,-1,-1,-1,-1,-1,-1,-1,-1,-1,-1,-1,-1,-1,-1,-1,-1,-1,-1,-1,-1,-1,-1,-1,-1,-1,-1,-1,-1,-1,-1,-1,-1,-1,-1,-1,-1,-1,-1,-1,-1,-1,-1,-1,-1,-1,-1,-1,-1,-1,-1,-1,-1,-1,-1],"split_conditions":[-5.728195E-1,1.4420834E-1,-6.2670745E-3,9.941531E-1,8.095896E-1,4.995505E-1,1.0209873E-1,-5.1039034E-1,1.07284784E-1,1.0292442E0,-7.300354E-2,-4.2606038E-1,8.004468E-1,-4.02108E-2,-3.6771885E-1,3.1697902E-1,-5.4206675E-1,-1.386919E0,4.7428784E-1,1.4528168E0,-1.17196344E-1,-1.1864771E0,6.015887E-1,-1.4377587E-2,7.576053E-1,-9.4669916E-2,-5.9648097E-1,-9.488259E-1,3.8918164E-1,-8.0540013E-1,2.9415223E-1,-6.720921E-1,5.0845987E-1,7.1360624E-1,-1.4137874E0,-1.5441512E-1,1.7345878E0,4.9143678E-1,8.7978923E-1,-7.6909196E-1,1.0610813E-2,-5.93639E-1,-8.977241E-1,1.3493012E-1,7.423648E-1,6.487229E-4,-5.7331663E-1,-1.1749305E-1,7.500941E-1,-9.075278E-1,-4.2130858E-1,-3.624744E-1,-1.7581184E-1,9.579991E-3,1.4545906E0,6.355866E-1,-6.887654E-1,-4.1295263E-1,-1.2681907E0,5.5044794E-1,2.7653444E-1,3.3991912E-1,7.446917E-3,1.6551945E-1,-9.990929E-2,2.076915E-1,-5.273841E-2,6.996848E-2,-1.6170822E-1,7.9421096E-2,-1.656601E-1,2.481514E-1,-9.091636E-2,9.355347E-3,-3.047038E-1,2.4961565E-1,7.071109E-2,-1.01437606E-1,-2.0919023E-1,1.5002717E-1,-1.703872E-1,8.6125E-2,-2.136529E-1,-8.315418E-2,2.307324E-1,-1.333885E-1,2.5720888E-1,-2.15957E-1,6.064851E-2,-3.66898E-2,2.3127209E-1,1.4494427E-2,-2.1190427E-1,-1.173069E-1,5.5988904E-2,1.5918325E-1,-3.3009823E-2,7.483776E-2,1.8981329E-1,-5.6201976E-2,1.1117106E-1,-7.158198E-2,9.6317485E-2,-2.3240007E-3,-1.6301629E-1,-1.8927108E-1,1.11236416E-1,1.7944147E-1,-1.0817397E-1,-7.525596E-2,2.0455788E-1,-7.344374E-2,-2.01243E-1,1.6879855E-1,-1.3437033E-2,7.066982E-2,-1.4440133E-1,-1.2638453E-1,1.2910755E-1,2.0612116E-1,9.2177175E-2,7.970546E-2,-5.8232177E-2,-1.7828536E-1,-2.233436E-2],"split_indices":[381,1205,26,7,1081,691,1503,801,1476,777,7,1503,381,10,751,672,741,1041,493,326,1391,191,1346,500,751,127,814,1060,208,7,110,1108,719,126,181,0,928,166,68,827,517,446,1080,1176,1452,1148,1152,1401,575,321,224,668,599,1148,1298,488,664,751,127,488,575,137,1011,0,0,0,0,0,0,0,0,0,0,0,0,0,0,0,0,0,0,0,0,0,0,0,0,0,0,0,0,0,0,0,0,0,0,0,0,0,0,0,0,0,0,0,0,0,0,0,0,0,0,0,0,0,0,0,0,0,0,0,0,0,0],"split_type":[0,0,0,0,0,0,0,0,0,0,0,0,0,0,0,0,0,0,0,0,0,0,0,0,0,0,0,0,0,0,0,0,0,0,0,0,0,0,0,0,0,0,0,0,0,0,0,0,0,0,0,0,0,0,0,0,0,0,0,0,0,0,0,0,0,0,0,0,0,0,0,0,0,0,0,0,0,0,0,0,0,0,0,0,0,0,0,0,0,0,0,0,0,0,0,0,0,0,0,0,0,0,0,0,0,0,0,0,0,0,0,0,0,0,0,0,0,0,0,0,0,0,0,0,0],"sum_hessian":[3.440369E3,8.4914185E2,2.591227E3,3.7665463E2,4.7248724E2,1.3437053E3,1.2475217E3,3.2037854E2,5.627607E1,4.2614072E2,4.634652E1,9.527451E2,3.9096027E2,6.320211E2,6.1550055E2,8.225824E1,2.3812032E2,3.4506504E1,2.1769564E1,4.0402908E2,2.2111626E1,2.2681147E1,2.366537E1,2.580824E2,6.946627E2,2.909094E2,1.0005086E2,3.0972897E2,3.2229218E2,1.9378348E2,4.2171704E2,4.4366737E1,3.7891506E1,5.7400887E1,1.8071942E2,1.0269549E0,3.347955E1,1.4899962E1,6.8696012E0,3.907992E2,1.3229886E1,1.3976006E1,8.135619E0,4.52058E0,1.8160568E1,1.8932049E1,4.7333226E0,1.2185395E2,1.3622844E2,5.683081E2,1.263546E2,1.3240591E2,1.585035E2,1.8319538E1,8.173132E1,5.0703793E1,2.5902518E2,1.8599268E2,1.362995E2,2.9969397E1,1.6381409E2,2.9223523E2,1.2948181E2,8.780365E0,3.558637E1,2.8996883E1,8.894624E0,4.0056202E1,1.7344685E1,8.794849E0,1.7192458E2,3.224768E1,1.2318693E0,9.46578E0,5.4341817E0,5.8351893E0,1.0344118E0,4.0544067E1,3.5025513E2,7.1835294E0,6.0463567E0,3.9828153E0,9.993191E0,1.3899249E0,6.7456946E0,2.2324076E0,2.2881722E0,1.7149431E1,1.0111368E0,6.2349043E0,1.26971445E1,1.0002136E0,3.733109E0,6.480174E1,5.7052208E1,1.1033709E2,2.5891356E1,5.8817898E1,5.094902E2,3.01888E1,9.6165794E1,3.6726112E1,9.5679794E1,6.546599E1,9.303751E1,9.0493555E0,9.270184E0,7.778684E1,3.9444835E0,3.9359158E1,1.1344635E1,5.5971172E1,2.03054E2,4.430777E1,1.416849E2,1.687735E1,1.1942215E2,1.8706518E1,1.1262878E1,1.0749299E2,5.6321102E1,2.0958441E2,8.2650826E1,6.566419E1,6.3817623E1],"tree_param":{"num_deleted":"0","num_feature":"1536","num_nodes":"125","size_leaf_vector":"1"}},{"base_weights":[-2.0179879E-4,-4.1833997E-1,2.1799025E-1,1.2574703E-1,-5.976139E-1,4.81373E-1,-9.1478184E-2,5.980399E-1,-1.8151803E-1,-1.6967887E-1,-7.593278E-1,6.776752E-1,1.09355964E-1,2.6446846E-1,-4.2429906E-1,3.3967965E-3,8.772835E-1,-4.9457577E-1,4.3433726E-1,3.2467017E-1,-5.0441474E-1,4.636525E-1,-8.0254406E-1,1.322704E-1,7.5816727E-1,-2.5862423E-1,4.42517E-1,4.7196805E-1,-2.1847193E-1,-5.801054E-1,1.2572531E-1,6.3005865E-1,-6.2509507E-1,-6.396613E-1,9.446536E-1,-7.5974303E-1,1.1665857E-1,8.2042605E-1,-1.4969678E-1,5.535962E-1,-5.89294E-1,-6.059718E-2,-8.008202E-1,-9.9273413E-1,7.905098E-1,-3.2367057E-1,-8.982788E-1,5.2744746E-1,-3.8378692E-1,5.182455E-1,8.9853424E-1,2.8726277E-1,-5.2588606E-1,9.3296444E-1,1.8155639E-1,6.962375E-1,3.6386847E-2,6.272406E-1,-5.041682E-1,5.175341E-2,-7.132194E-1,5.727513E-1,-2.7473408E-1,-1.1778046E-1,2.0595889E-1,6.5539256E-2,-2.0203708E-1,1.303599E-1,-2.8094864E-1,-3.6434997E-2,2.0611452E-1,5.3077973E-2,-1.7322752E-1,9.830378E-2,-1.9631818E-1,1.8541604E-1,-2.2873826E-1,-1.1694374E-1,1.6559887E-1,1.7467043E-1,5.06003E-3,-1.5896194E-1,2.2699991E-1,4.823076E-2,-1.7417948E-1,-2.1062486E-1,-6.05294E-2,-3.4546122E-1,1.3153742E-1,-9.5151365E-2,2.0717195E-1,6.779336E-2,-1.23022534E-1,-8.444769E-2,-1.9351037E-1,1.4624372E-1,-1.2272387E-1,-1.4701815E-1,1.176029E-1,2.7576923E-2,1.6187084E-1,-1.244714E-1,1.835972E-1,-3.215457E-2,1.6212475E-1,-1.3683803E-1,6.2486716E-2,1.961542E-1,-1.6630338E-1,1.20154284E-1,-4.437457E-2,-1.6880533E-1,1.4976901E-1,8.002428E-2,-9.9009916E-2,-1.1546542E-2,1.811956E-1,-1.293672E-1,9.0753324E-2,-1.4131217E-1,7.782089E-2,-9.524139E-3,-1.6237448E-1,1.944124E-1,-4.3895035E-3,-1.1020821E-1,9.947123E-2],"categories":[],"categories_nodes":[],"categories_segments":[],"categories_sizes":[],"default_left":[0,0,0,0,0,0,0,0,0,0,0,0,0,0,0,0,0,0,0,0,0,0,0,0,0,0,0,0,0,0,0,0,0,0,0,0,0,0,0,0,0,0,0,0,0,0,0,0,0,0,0,0,0,0,0,0,0,0,0,0,0,0,0,0,0,0,0,0,0,0,0,0,0,0,0,0,0,0,0,0,0,0,0,0,0,0,0,0,0,0,0,0,0,0,0,0,0,0,0,0,0,0,0,0,0,0,0,0,0,0,0,0,0,0,0,0,0,0,0,0,0,0,0,0,0,0,0],"id":11,"left_children":[1,3,5,7,9,11,13,15,17,19,21,23,25,27,29,31,33,35,37,39,41,43,45,47,49,51,53,55,57,59,61,63,65,67,69,71,73,75,77,79,81,83,85,87,89,91,93,95,97,99,101,103,105,107,109,111,113,115,117,119,121,123,125,-1,-1,-1,-1,-1,-1,-1,-1,-1,-1,-1,-1,-1,-1,-1,-1,-1,-1,-1,-1,-1,-1,-1,-1,-1,-1,-1,-1,-1,-1,-1,-1,-1,-1,-1,-1,-1,-1,-1,-1,-1,-1,-1,-1,-1,-1,-1,-1,-1,-1,-1,-1,-1,-1,-1,-1,-1,-1,-1,-1,-1,-1,-1,-1],"loss_changes":[2.9596097E2,1.0857207E2,1.737908E2,4.0233845E1,5.7782135E1,8.403357E1,1.163176E2,1.8132328E1,3.265954E1,3.8354275E1,3.2455505E1,3.2988434E1,4.903136E1,4.7663303E1,4.354786E1,1.4534277E1,8.198784E0,1.8247488E1,1.3031253E1,1.9949596E1,1.8105751E1,1.09491625E1,2.6605621E1,2.021677E1,2.1645874E1,2.7904202E1,2.6679798E1,3.243502E1,3.4944267E1,3.3302307E1,2.0351404E1,9.608938E0,7.092194E0,4.627082E0,7.1155663E0,8.766842E0,1.4794946E1,8.312086E0,1.0533786E1,1.2734806E1,7.7310233E0,1.3986137E1,1.0071026E1,6.4183197E0,6.083582E0,1.9387247E1,1.5696442E1,1.3469911E1,1.516012E1,2.6984077E1,1.2785553E1,1.4942623E1,1.7208202E1,6.9407806E0,2.35004E1,1.8401413E1,2.223308E1,7.0470066E0,1.5010109E1,1.811932E1,2.1416687E1,1.2756355E1,1.3112068E1,0E0,0E0,0E0,0E0,0E0,0E0,0E0,0E0,0E0,0E0,0E0,0E0,0E0,0E0,0E0,0E0,0E0,0E0,0E0,0E0,0E0,0E0,0E0,0E0,0E0,0E0,0E0,0E0,0E0,0E0,0E0,0E0,0E0,0E0,0E0,0E0,0E0,0E0,0E0,0E0,0E0,0E0,0E0,0E0,0E0,0E0,0E0,0E0,0E0,0E0,0E0,0E0,0E0,0E0,0E0,0E0,0E0,0E0,0E0,0E0,0E0,0E0,0E0,0E0],"parents":[2147483647,0,0,1,1,2,2,3,3,4,4,5,5,6,6,7,7,8,8,9,9,10,10,11,11,12,12,13,13,14,14,15,15,16,16,17,17,18,18,19,19,20,20,21,21,22,22,23,23,24,24,25,25,26,26,27,27,28,28,29,29,30,30,31,31,32,32,33,33,34,34,35,35,36,36,37,37,38,38,39,39,40,40,41,41,42,42,43,43,44,44,45,45,46,46,47,47,48,48,49,49,50,50,51,51,52,52,53,53,54,54,55,55,56,56,57,57,58,58,59,59,60,60,61,61,62,62],"right_children":[2,4,6,8,10,12,14,16,18,20,22,24,26,28,30,32,34,36,38,40,42,44,46,48,50,52,54,56,58,60,62,64,66,68,70,72,74,76,78,80,82,84,86,88,90,92,94,96,98,100,102,104,106,108,110,112,114,116,118,120,122,124,126,-1,-1,-1,-1,-1,-1,-1,-1,-1,-1,-1,-1,-1,-1,-1,-1,-1,-1,-1,-1,-1,-1,-1,-1,-1,-1,-1,-1,-1,-1,-1,-1,-1,-1,-1,-1,-1,-1,-1,-1,-1,-1,-1,-1,-1,-1,-1,-1,-1,-1,-1,-1,-1,-1,-1,-1,-1,-1,-1,-1,-1,-1,-1,-1],"split_conditions":[-3.1903243E-1,-6.28777E-1,7.821947E-2,-6.104463E-1,-3.7333772E-1,3.1645542E-1,-1.518757E-1,-5.107814E-1,2.0187025E-1,-1.5678278E-1,-1.2951002E0,-9.6756995E-1,6.490671E-2,1.3162419E-1,8.131093E-1,-8.614708E-2,-1.7367516E0,4.8766527E-1,1.22416966E-1,7.502053E-1,-4.6062693E-3,-4.236098E-1,-7.3045814E-1,-1.0900204E-1,-6.3223734E-2,-4.1697755E-1,-3.2375285E-1,3.8230014E-1,-8.21659E-1,-8.238512E-1,-9.671001E-2,-2.1179825E-1,-2.3250401E-1,-3.8456148E-1,-9.263384E-1,-9.085572E-1,6.318295E-1,1.710484E0,6.535661E-1,6.0347345E-2,1.4852847E0,5.5166364E-1,2.803624E-1,1.1688261E-1,-1.1022521E0,-3.1050906E-1,-8.381955E-1,7.1370655E-1,7.919526E-1,-1.3779612E-1,-1.9447349E0,4.2872E-1,7.4660873E-1,1.8180835E0,1.0550537E-1,-1.7455071E0,-4.0491265E-3,-3.86083E-1,1.2156972E0,-4.1330233E-1,-8.454588E-1,1.6574237E-1,6.641648E-1,-1.1778046E-1,2.0595889E-1,6.5539256E-2,-2.0203708E-1,1.303599E-1,-2.8094864E-1,-3.6434997E-2,2.0611452E-1,5.3077973E-2,-1.7322752E-1,9.830378E-2,-1.9631818E-1,1.8541604E-1,-2.2873826E-1,-1.1694374E-1,1.6559887E-1,1.7467043E-1,5.06003E-3,-1.5896194E-1,2.2699991E-1,4.823076E-2,-1.7417948E-1,-2.1062486E-1,-6.05294E-2,-3.4546122E-1,1.3153742E-1,-9.5151365E-2,2.0717195E-1,6.779336E-2,-1.23022534E-1,-8.444769E-2,-1.9351037E-1,1.4624372E-1,-1.2272387E-1,-1.4701815E-1,1.176029E-1,2.7576923E-2,1.6187084E-1,-1.244714E-1,1.835972E-1,-3.215457E-2,1.6212475E-1,-1.3683803E-1,6.2486716E-2,1.961542E-1,-1.6630338E-1,1.20154284E-1,-4.437457E-2,-1.6880533E-1,1.4976901E-1,8.002428E-2,-9.9009916E-2,-1.1546542E-2,1.811956E-1,-1.293672E-1,9.0753324E-2,-1.4131217E-1,7.782089E-2,-9.524139E-3,-1.6237448E-1,1.944124E-1,-4.3895035E-3,-1.1020821E-1,9.947123E-2],"split_indices":[321,703,703,642,1060,208,787,672,488,1012,1257,1391,1401,1504,1401,1264,72,7,1318,377,691,259,719,137,850,1298,751,896,1371,1312,1426,265,650,926,1391,1371,1326,1363,1342,181,1414,787,455,430,1398,329,715,152,777,254,1365,820,7,839,870,892,127,11,58,340,210,1341,584,0,0,0,0,0,0,0,0,0,0,0,0,0,0,0,0,0,0,0,0,0,0,0,0,0,0,0,0,0,0,0,0,0,0,0,0,0,0,0,0,0,0,0,0,0,0,0,0,0,0,0,0,0,0,0,0,0,0,0,0,0,0,0,0],"split_type":[0,0,0,0,0,0,0,0,0,0,0,0,0,0,0,0,0,0,0,0,0,0,0,0,0,0,0,0,0,0,0,0,0,0,0,0,0,0,0,0,0,0,0,0,0,0,0,0,0,0,0,0,0,0,0,0,0,0,0,0,0,0,0,0,0,0,0,0,0,0,0,0,0,0,0,0,0,0,0,0,0,0,0,0,0,0,0,0,0,0,0,0,0,0,0,0,0,0,0,0,0,0,0,0,0,0,0,0,0,0,0,0,0,0,0,0,0,0,0,0,0,0,0,0,0,0,0],"sum_hessian":[3.241962E3,1.1113257E3,2.130636E3,2.7549902E2,8.3582666E2,1.1507224E3,9.799137E2,1.0821576E2,1.6728328E2,2.2979134E2,6.0603534E2,7.527155E2,3.980069E2,4.736055E2,5.0630817E2,3.4902916E1,7.331284E1,1.1103685E2,5.6246433E1,9.278841E1,1.3700293E2,2.0352398E1,5.85683E2,9.714126E1,6.555743E2,1.892271E2,2.0877979E2,3.3128757E2,1.4231793E2,3.945022E2,1.1180599E2,1.7475653E1,1.7427261E1,2.7562711E0,7.055657E1,7.727168E1,3.3765163E1,3.3617847E1,2.2628588E1,7.4517784E1,1.8270618E1,5.534199E1,8.1660934E1,3.3570583E0,1.699534E1,9.830977E1,4.873732E2,5.500129E1,4.213997E1,2.4370844E2,4.118658E2,6.2169655E1,1.2705745E2,7.1613945E1,1.3716585E2,2.1829485E2,1.1299274E2,3.5635357E1,1.0668257E2,6.8754234E1,3.2574796E2,5.262801E1,5.9177986E1,4.198734E0,1.3276918E1,5.0590897E0,1.2368172E1,1.080481E0,1.6757901E0,4.9193172E0,6.563725E1,7.1251383E0,7.0146545E1,2.5584858E1,8.180307E0,3.2387173E1,1.2306752E0,1.5938652E1,6.689935E0,4.6014156E1,2.850363E1,1.680653E1,1.4640896E0,4.0836945E1,1.4505046E1,5.346775E1,2.819318E1,2.290856E0,1.0662025E0,2.6060832E0,1.43892565E1,2.9980814E1,6.832896E1,6.2814045E1,4.2455914E2,4.69722E1,8.02909E0,3.1130095E1,1.1009872E1,1.0629615E2,1.3741228E2,4.8097234E0,4.070561E2,3.3868515E1,2.8301138E1,1.0703024E2,2.0027203E1,7.015728E1,1.4566689E0,6.702699E1,7.013885E1,6.712744E0,2.1158209E2,